-6908
-8047
3325
1771
-24104
-15676
-21955
-8863
-320
4384
3144
-20907
-394
-1767
-3509
-13795
-15784
-3516
1806
-2567
-15041
-8391
-227
-22181
-14381
-18895
-10376
-4104
1301
4020
-12192
-884
-23285
-4360
-3442
-7579
-10926
-2617
-5494
-19438
-3117
-20538
2152
-8170
-15037
-21433
-8007
-9335
5975
-39856
-942
-5065
5068
-18743
2916
-3710
-8011
-209
-515
-4882
4004
-7131
-3404
-5158
-17847
-5284
-18966
-1361
1343
-24168
6547
-4727
-12951
-3881
5687
-16779
-229
-15481
-4548
-7312
-8484
-565
4435
6544
-1652
-12115
-4509
-3234
559
-24583
-10618
-7357
-2441
343
-5609
423
-9231
-12584
-2627
-1403
1807
262
2067
-5892
-1308
-2526
-1873
-4896
2957
-10952
-2110
-12013
1715
-1451
-18713
-13832
-1920
-30121
-22364
-7119
-772
-247
8415
-3175
6294
-13610
-31463
-5395
-9218
-196
-26016
-395
-1945
-3169
-18091
-4036
-390
-1048
-22185
-9273
-18142
1662
-728
-58
-2653
-6545
-1535
-15392
-7523
-17065
397
-1209
-84
-23142
-3164
3435
-16604
-8703
-447
-12134
1259
8054
-8608
-1163
-13042
-511
-7534
-919
-28057
9557
-5573
-7621
-4158
-15166
-3986
-881
-2404
3361
-21678
-1517
-10374
-1306
6241
-19319
-9659
-16098
-2359
-4727
-2520
-13765
-2220
-10635
12325
-2824
-12919
-1081
-4081
-10887
474
4671
-7886
2929
-27481
7067
-11407
-17434
-4886
-7266
-33911
2192
-28449
-21125
-11109
3307
-3173
-16960
-23409
-3166
-4237
1484
5989
-25286
-1681
11486
-18
2378
1041
-2809
-1748
938
-571
-7904
-13219
2164
-12469
4515
-5177
-850
1637
6452
-10551
-21959
654
3685
-2027
-3842
-906
-6491
-16096
-451
-111
3316
-1533
-22284
3199
-13896
