-6.746469020843505859e+00
-7.858659267425537109e+00
3.247428655624389648e+00
1.730135202407836914e+00
-2.353957557678222656e+01
-1.530942630767822266e+01
-2.144118881225585938e+01
-8.656167984008789062e+00
-3.127722442150115967e-01
4.281849861145019531e+00
3.071101903915405273e+00
-2.041727256774902344e+01
-3.848318755626678467e-01
-1.725849151611328125e+00
-3.427414417266845703e+00
-1.347233486175537109e+01
-1.541479015350341797e+01
-3.433610200881958008e+00
1.763933062553405762e+00
-2.507424354553222656e+00
-1.468925666809082031e+01
-8.195263862609863281e+00
-2.220252305269241333e-01
-2.166137886047363281e+01
-1.404408740997314453e+01
-1.845215225219726562e+01
-1.013333225250244141e+01
-4.008748531341552734e+00
1.270656824111938477e+00
3.925934314727783203e+00
-1.190720748901367188e+01
-8.639485836029052734e-01
-2.273945617675781250e+01
-4.258677005767822266e+00
-3.361703395843505859e+00
-7.402044773101806641e+00
-1.067008876800537109e+01
-2.556001424789428711e+00
-5.365795135498046875e+00
-1.898262786865234375e+01
-3.044198989868164062e+00
-2.005735778808593750e+01
2.101795434951782227e+00
-7.979281425476074219e+00
-1.468472766876220703e+01
-2.093161964416503906e+01
-7.819375514984130859e+00
-9.116822242736816406e+00
5.835760593414306641e+00
-3.892256927490234375e+01
-9.207985997200012207e-01
-4.946756362915039062e+00
4.949764251708984375e+00
-1.830373191833496094e+01
2.847927808761596680e+00
-3.623615264892578125e+00
-7.823340415954589844e+00
-2.049389332532882690e-01
-5.034212470054626465e-01
-4.767865180969238281e+00
3.910934925079345703e+00
-6.964258193969726562e+00
-3.324602127075195312e+00
-5.037756919860839844e+00
-1.742941665649414062e+01
-5.160900592803955078e+00
-1.852225303649902344e+01
-1.329893469810485840e+00
1.311795711517333984e+00
-2.360158538818359375e+01
6.393915653228759766e+00
-4.617084980010986328e+00
-1.264807605743408203e+01
-3.790128946304321289e+00
5.554350852966308594e+00
-1.638636970520019531e+01
-2.242874056100845337e-01
-1.511823368072509766e+01
-4.441680431365966797e+00
-7.140830039978027344e+00
-8.285571098327636719e+00
-5.518339872360229492e-01
4.331854820251464844e+00
6.391094207763671875e+00
-1.613718867301940918e+00
-1.183126354217529297e+01
-4.404216289520263672e+00
-3.159153223037719727e+00
5.461049675941467285e-01
-2.400754165649414062e+01
-1.036966133117675781e+01
-7.184885501861572266e+00
-2.384752035140991211e+00
3.355735242366790771e-01
-5.477616310119628906e+00
4.140226840972900391e-01
-9.015604972839355469e+00
-1.228989696502685547e+01
-2.566345453262329102e+00
-1.370160222053527832e+00
1.765101313591003418e+00
2.562449574470520020e-01
2.018621683120727539e+00
-5.754244804382324219e+00
-1.278110742568969727e+00
-2.467558622360229492e+00
-1.829380154609680176e+00
-4.781986236572265625e+00
2.887940168380737305e+00
-1.069576549530029297e+01
-2.060730457305908203e+00
-1.173172664642333984e+01
1.674903750419616699e+00
-1.417683601379394531e+00
-1.827472114562988281e+01
-1.350850200653076172e+01
-1.875024557113647461e+00
-2.941576004028320312e+01
-2.184062576293945312e+01
-6.952989101409912109e+00
-7.540743350982666016e-01
-2.420468032360076904e-01
8.218303680419921875e+00
-3.101243019104003906e+00
6.147368431091308594e+00
-1.329120540618896484e+01
-3.072649383544921875e+01
-5.268680572509765625e+00
-9.002421379089355469e+00
-1.923820972442626953e-01
-2.540690612792968750e+01
-3.858180940151214600e-01
-1.900014400482177734e+00
-3.095537662506103516e+00
-1.766711807250976562e+01
-3.941451072692871094e+00
-3.816785812377929688e-01
-1.023803710937500000e+00
-2.166522598266601562e+01
-9.055668830871582031e+00
-1.771704673767089844e+01
1.623168826103210449e+00
-7.109479308128356934e-01
-5.698649957776069641e-02
-2.591354370117187500e+00
-6.391737937927246094e+00
-1.499561071395874023e+00
-1.503174781799316406e+01
-7.347372531890869141e+00
-1.666520881652832031e+01
3.881680071353912354e-01
-1.181376695632934570e+00
-8.299089968204498291e-02
-2.259997749328613281e+01
-3.090611219406127930e+00
3.355038404464721680e+00
-1.621493148803710938e+01
-8.499819755554199219e+00
-4.371321499347686768e-01
-1.185053920745849609e+01
1.230391383171081543e+00
7.865571022033691406e+00
-8.406874656677246094e+00
-1.136397123336791992e+00
-1.273707199096679688e+01
-4.994482994079589844e-01
-7.357502937316894531e+00
-8.977279067039489746e-01
-2.739963912963867188e+01
9.333317756652832031e+00
-5.442813873291015625e+00
-7.443252563476562500e+00
-4.060977458953857422e+00
-1.481056118011474609e+01
-3.893239498138427734e+00
-8.606436252593994141e-01
-2.347915887832641602e+00
3.282756805419921875e+00
-2.117072486877441406e+01
-1.482017874717712402e+00
-1.013097763061523438e+01
-1.276104331016540527e+00
6.095396518707275391e+00
-1.886672019958496094e+01
-9.433345794677734375e+00
-1.572082901000976562e+01
-2.303755998611450195e+00
-4.617182254791259766e+00
-2.461704254150390625e+00
-1.344323253631591797e+01
-2.168540477752685547e+00
-1.038607215881347656e+01
1.203678321838378906e+01
-2.758153438568115234e+00
-1.261682701110839844e+01
-1.056047439575195312e+00
-3.985722303390502930e+00
-1.063200664520263672e+01
4.630365073680877686e-01
4.561928272247314453e+00
-7.701235771179199219e+00
2.860597610473632812e+00
-2.683737564086914062e+01
6.901941299438476562e+00
-1.114021778106689453e+01
-1.702583312988281250e+01
-4.771910190582275391e+00
-7.096274375915527344e+00
-3.311627960205078125e+01
2.141181945800781250e+00
-2.778304100036621094e+01
-2.063079071044921875e+01
-1.084878253936767578e+01
3.230168104171752930e+00
-3.099283218383789062e+00
-1.656260108947753906e+01
-2.286074066162109375e+01
-3.092444181442260742e+00
-4.138526916503906250e+00
1.449807047843933105e+00
5.848813056945800781e+00
-2.469358253479003906e+01
-1.641848683357238770e+00
1.121700286865234375e+01
-1.854071207344532013e-02
2.322501182556152344e+00
1.016854166984558105e+00
-2.744081020355224609e+00
-1.707775950431823730e+00
9.165018200874328613e-01
-5.581982731819152832e-01
-7.718840599060058594e+00
-1.291005992889404297e+01
2.113534450531005859e+00
-1.217700672149658203e+01
4.409552574157714844e+00
-5.055873870849609375e+00
-8.308065533638000488e-01
1.599445939064025879e+00
6.301065444946289062e+00
-1.030461025238037109e+01
-2.144529151916503906e+01
6.391085386276245117e-01
3.599223613739013672e+00
-1.979885935783386230e+00
-3.752704858779907227e+00
-8.847985267639160156e-01
-6.339382171630859375e+00
-1.571881484985351562e+01
-4.409823715686798096e-01
-1.091556772589683533e-01
3.238910198211669922e+00
-1.497201442718505859e+00
-2.176196861267089844e+01
3.124168634414672852e+00
-1.357095718383789062e+01
