32 12 -34 -24 8 -5 -26 2 -71127 -19925 -29601 -17810 -21400 -9867 -4792 -41138 -598 -5223 -1231 -10025 14470 -2819 -5206 -7005 -4606 -8321 -2543 -12957 5848 -1003 12248 544 -824 808 -533 1399 7147 3316 9191 2067 4805 -3261 3944 -2804 -1516 11393 18280 5290 672 -3944 793 -1288 1384 2993 14616 -6893 -30 24 -28 28 -25 -23 5 16 -3747 -22976 -15451 -1508 -1617 -11622 10553 -15434 -661 202 -23740 13168 13554 11664 -12392 3988 11694 -22436 10683 11046 -1223 14422 12212 12903 -7983 -15971 -6919 -32120 5915 -22358 -4585 -29136 4496 6320 -9761 7628 -4947 8658 -8898 -8935 -9112 -7657 -23534 5491 -12027 -2862 -8237 -13216 5221 24773 -15442 -19826 -5676 -8612 -9090 -1546 -3117 -16356 2487 -17558 -1420 93 -4260 -27717 -13775 -25216 -26228 -20141 -10727 -9240 16507 -33500 -7995 -13894 -399 -11865 899 4596 15852 7400 -982 2610 7132 -9897 -4185 2285 1477 12133 18346 -15753 3902 -37311 4059 -10213 13424 3891 -8943 -2971 -4948 2264 4341 -4935 19030 3355 -1297 -18060 -10412 10029 -6359 7192 -15452 -11598 15944 -15368 6480 -8577 2075 -585 3300 4912 894 -2848 -13409 -2737 -9892 701 -17478 -442 -51127 -10571 -48550 -22251 -13905 11619 -6167 -6510 8400 19938 15108 -16468 32701 5559 -1589 -18986 -10757 -9979 -47230 10356 4558 -14527 5408 -13155 -26500 -501 -8926 23941 4924 -34962 -8568 -23388 8934 -24964 9610 -12859 -32218 15919 17691 10583 7240 -4026 -2444 -4554 -23987 -1306 -1024 -1499 -10073 -16859 -4112 -25657 -1956 -6472 -20298 2757 -8929 -3378 -3806 -19066 -9439 -11441 6941 -8280 6245 33050 -44886 25142 -4742 -33135 -29751 -14287 -13668 -4273 -1539 -3003 -26872 32051 -21430 -27953 4718 -7971 -31924 -11940 -23117 4547 1599 14572 2354 -62503 2914 -69671 32093 -29294 -10261 -18031 6235 -5100 -12510 10971 -7673 -7367 -2508 -10275 -652 -3779 -13857 2445 -21984 -1634 -6321 -8779 -12501 -20143 -8527 -16880 -6336 4834 -5506 -9086 2280 -12291 -3927 -7912 -7032 -10372 -4498 3902 -763 14 1904 615 7 2694 227 -307 -1539 -6786 -1998 -3563 -612 9640 -16647 4112 -50 -43426 -19206 27641 -18826 23319 -4187 -30482 -8605 15942 26283 -6242 -23629 37389 4725 -11019 15324 -44831 24654 -9321 11009 -19041 -928 4623 -12264 2561 14802 4119 -12465 -1314 496 797 -18030 13602 7555 -650 9556 -8196 -21862 -25271 -1792 5948 -4603 6819 -1674 -5063 -18180 -24186 -34 -26 33 26 18 0 -32 -6 -1656 -1331 1119 1417 -3121 -1671 8567 6197 -8441 -1822 -6653 3507 -18386 -2707 -1946 3705 3041 8171 -1017 3459 5805 1385 6211 4679 -2462 632 -1449 -8888 10501 -14767 -11589 -2329 -9204 -3275 -8036 919 17555 7468 2740 -9932 6990 28847 23825 -15236 -12929 27385 15621 35903 -14 -18 34 5 -15 -19 -34 -3 3120 9971 5411 3265 14521 15097 10268 -13028 -269 29577 -15306 4926 1067 8163 -20256 789 9126 14052 18289 -5435 7364 -1185 6801 7311 -11969 26296 4306 -8570 10219 -8305 7226 9167 -4131 -10372 -6266 14925 18600 -21228 -3670 -19290 -2278 4522 -9448 1618 -29447 -759 11038 10397 11478 15176 -968 6956 -6687 5791 21028 13734 -16530 4138 15239 -11367 9813 7965 -6210 16811 -15653 -13193 6165 -3814 -2189 2609 6629 13550 -19848 -6423 10184 7668 7561 -4761 -1725 26190 7408 10878 8800 13625 1689 -3820 -3115 7656 -13514 1976 1558 -9517 4449 2273 14666 15768 19747 -12535 22344 9365 -4492 -3837 -11334 -20052 -69 2692 -17808 449 21628 -5290 13622 5457 -7349 14809 6815 -16043 -3106 30677 -17126 -8077 -18323 -3340 -5544 6116 16542 -12289 30089 -3706 7203 9473 57 -1566 8796 -6939 -6937 -7142 -3000 -9123 4423 -7652 -9845 7753 516 -2786 -4544 -1469 -1405 -4339 15303 1826 -12661 -1756 6647 -20460 10419 5524 18915 -22727 4937 -29833 9649 10940 -13806 16479 11145 -67748 -32684 -52482 15049 2016 15744 -5331 1333 -19967 6130 -1402 27511 9041 -41647 -28253 6447 41086 -17531 -8508 -9443 15189 461 -14253 22747 -1240 10438 -12916 15196 5237 9895 10559 21940 179 17425 35910 2219 15033 29568 13407 20972 5767 2015 -6675 28856 25378 29265 22292 14931 20116 12060 -911 7483 17037 2966 24362 5701 712 8039 -1753 33438 -22140 -3653 16973 -1689 29689 -4406 -7915 -31341 5830 -22608 -50064 -17626 5062 11433 -6958 12301 42070 -58476 -40676 2190 35996 -11218 11732 -931 15183 11585 -35570 2587 2542 55616 23657 -28485 -7561 5637 -1848 7317 4952 16818 891 5737 -12897 -1982 -16729 7718 -3995 4586 -1096 -27413 -22084 -6531 -2445 -4011 -4739 -13172 -3300 422 -22425 -19141 -3326 -22365 4370 -27731 6373 -35407 -7021 -16958 -3275 -53774 -2210 -18513 2658 -16302 -15389 -22273 31815 11545 -3844 -48088 -30254 -4302 2434 2669 7327 -3246 18985 -10400 -11766 3679 -2198 3888 -35 10006 -3030 -623 261
-2 -9 20 4 9 -10 0 -14 -1483 11717 -1741 26253 -7496 6513 -2512 12020 9428 2996 13575 -13168 -8771 2088 -257 -1005 -737 1407 -12215 -3041 1427 -24067 475 7304 1207 5077 -7817 -1769 -3102 -3663 -1650 2691 10417 -9277 11550 -527 1589 -11212 13 -8722 1047 -265 -8321 4921 -12336 1242 -4041 -2218 -15 11 21 -13 12 -4 -11 24 5522 25154 12785 -22948 12404 -11070 -29203 23759 8454 -44628 -4744 -55515 -2114 1312 2836 9519 19261 -35284 16927 7410 -11988 -4855 4738 982 -7971 1070 -6672 -2817 7872 -24869 18028 28691 -5168 16489 -11301 -3109 16849 -4026 8885 -24152 -11855 -4238 1691 -33903 1428 1173 8495 2314 -6257 7577 -10883 748 2293 -5293 3630 -4088 19354 5064 10902 7227 7952 -3676 -8882 -5225 9573 1950 -13607 -16664 14423 -24627 13575 -367 15517 3235 13176 -13736 -3814 2602 -24972 26854 15623 6220 -24794 -21669 9455 6108 -5430 -1491 -18051 4982 4376 -1940 -4418 15290 6648 2783 11269 -8421 3375 4016 17388 -3491 1561 10317 -17614 -55853 12894 3124 986 5705 4363 -9966 26385 -10553 17463 -2962 -1580 14608 -2960 -24941 -10154 7118 -20928 6158 -7125 -2359 6801 -19464 -20275 -2657 31219 -11355 -1933 1037 -45794 -27932 -10859 -20028 7699 -17662 9371 -11839 -9446 21467 -40643 2646 19570 -17509 1322 -18076 6665 -12409 12731 -3301 266 -18944 -5049 15572 16810 -3994 -6366 20309 12293 -4462 -35508 6789 -10515 -15113 18857 -9393 12219 -6283 -40393 -4578 -10281 -17719 7895 -354 2280 -14820 12354 683 -7230 -10905 -947 10582 -6269 7833 -24868 -7906 -1504 -4316 15417 4185 34268 36758 -16918 30353 20254 -36086 37686 -46845 14723 7507 -48746 13858 10882 -3473 5836 -8124 13375 11999 21925 22245 -26042 3617 21492 -17316 4965 2135 -1043 -21416 38235 -44204 13260 -18425 14067 17279 14638 -36960 12639 22902 26848 10549 8145 10469 -10834 3081 7121 18090 7198 5806 -8472 -54980 5962 -13868 14728 14038 1190 10473 -23627 -2242 -21146 -2416 -35014 -23690 915 -7 8 23 35 -6 64 634 189 2257 1524 894 321 2310 7723 26 8600 -5655 22559 14393 8899 -3350 12061 3716 -5781 -17338 -5024 10668 -12867 -20661 16093 -16844 -1912 9910 14228 -28879 1091 5076 2300 22107 2954 -221 -11056 10823 1405 -11624 3377 -25381 13340 -2025 7945 5119 1844 -7393 -3717 -10356 11165 14446 978 12306 -1092 -13351 -17868 -17737 31 -12 34 19 -32 -24 -12 -23 -6149 -4830 5303 -7789 -7510 -4249 9920 -12583 691 1775 5104 -965 -10952 -10875 915 -6391 -3908 -3866 -649 -10598 -1120 5650 2913 -3245 -11433 -12845 4802 -18029 -8331 -8320 7791 -4088 7094 -24960 12666 4723 3056 -25340 -3124 -37729 20352 320 -28484 -2949 5208 2754 -17633 6619 2 34 -2 13 -15 -25 27 -25 6713 -14151 -27707 -7500 -9456 -9050 -3664 8080 7739 -4514 1126 641 -5467 -24019 3370 -1038 5235 -28467 -5206 930 -12525 -7825 15936 869 -5685 -19887 -16396 -8580 -10478 1029 -29037 13069 -34247 7765 691 -8560 13798 15697 -20879 -21536 -4744 1290 -14755 -11581 8315 -12080 2588 21472 4811 -22034 15228 -3755 6995 -4082 4911 -16480 1153 20775 8432 1244 1434 1923 -8872 -11987 -1834 -4093 -4244 10358 -41 -185 -35983 9438 8683 -4912 -5795 -6780 -7182 11424 406 20071 7500 8129 -11778 591 -8004 -29941 -21187 7362 -1099 -3019 -749 -3780 -14847 4741 23590 -5316 -1199 8127 -27401 -5259 1539 -36504 -7869 10480 -214 5655 11118 9797 -10783 4478 -24754 -17848 20516 20435 8326 -6531 -30876 18648 -12612 3993 8221 -21459 14255 -6157 17549 9362 12564 -33770 -14415 -4965 -518 -5415 -16238 3837 5131 -5291 7330 -2771 3798 -3211 2879 -4243 5763 15258 4851 6681 -11011 -737 -12367 28950 9817 -15828 16399 -11266 15913 -29466 12148 3135 12939 -3720 9102 6219 1437 -6354 205 5163 -11298 956 -40483 8117 -24899 -22785 11044 2415 -7567 66 18135 17161 -12657 -3628 -18098 -9979 -267 12317 7475 3703 -20356 3382 -6150 -2879 24792 -10662 -7493 3254 9960 -4733 -14187 2658 -1729 6155 6131 13123 7200 14087 -3166 1116 4617 1275 -30353 -34362 14387 5243 -7771 -13548 -5500 -11650 12065 21370 23737 23510 -14276 2095 4677 3596 -30107 25160 5432 33788 -27157 2640 -10764 20017 -44182 1621 -4510 18717 13881 -28574 -439 -5284 15765 -41566 21580 -23650 -24580 19808 14237 6243 34715 13615 17280 17859 22877 -27694 -18504 301 -11323 6552 977 7445 4317 -12064 -3512 -13757 -6251 4849 1943 1690 -4059 13809 10857 -28151 12797 10095 -26236 3762 2707 -8642 1874 -11339 20772 8768 -24891 -30823 -2102 -3264 7706 13195 3153 -4577 -34543 -19069 6455 -21941 -22036 -20044 -957 -14460 -8873 -8956 -12059 6184 -15728 -3804 4330 -305 -10560 36 4886 -557 874 -663 5961 -6 -2547 17 -76 1004 0 9
14 -12 -34 -36 4 25 -3 -33 12527 -13583 1112 -17536 -12291 -968 17594 -10549 19296 -549 12470 12925 1188 13281 -6563 27993 7638 -1926 -1585 -4164 1884 115 13364 -13508 3349 2363 -10926 3107 -5863 3647 -4905 5325 587 2547 8606 -5447 -2094 5201 6549 2243 -2614 3996 -2345 -9781 -1419 286 4260 -3467 32 -16 -9 29 -22 -2 -34 21 2963 -28068 9574 18937 8879 18 -451 -17164 -17371 16689 -22442 -12270 -5147 15256 26333 7031 -24015 9142 -17896 8888 23242 -20800 5271 -5465 5790 -6197 7933 -2633 -6724 8845 -1621 9955 109 3811 -561 -2540 10852 8247 3219 -13858 -2208 -8298 -3986 784 -11098 4262 -13107 3689 9669 -35999 8266 -3506 3620 -13653 -27501 -5100 -26469 -806 6565 -9910 -412 -1187 -4178 17861 -43361 42947 -6379 -19804 12861 9942 -6823 1289 6561 6498 14415 -21323 7137 760 19051 -4533 2351 8422 10024 -15190 5491 24705 -23683 27961 1218 -13631 11593 -14507 3743 -10255 13269 5555 24775 -5939 -4683 -6756 -12712 12623 -6808 1171 -11976 8316 3312 -3484 4693 -18351 635 9187 7862 -20786 11266 -9209 773 -16389 -8314 10146 -4723 26517 2977 12427 -2208 -6124 -34655 1422 -2904 16445 592 6876 -31760 29664 5651 26996 2545 -5177 657 -575 -4498 6403 27683 41225 3819 -8373 -20143 3602 2115 -20586 11718 20566 -9039 3908 -2960 11760 31298 -10001 4331 3419 15949 -10370 -8381 -5564 28229 7538 8606 17995 -3593 17301 -2783 10765 13934 16516 -17454 1822 2637 -18624 6770 3609 15167 3146 7147 -5968 659 -3686 4584 17593 8957 12832 3131 8654 -21181 3446 -26779 -13011 -966 12050 5076 29981 -7660 3877 14960 -42109 29944 14542 38301 48077 5189 8216 -46191 31158 -34735 48257 18421 28346 15001 -39659 14052 -35580 -428 -2092 16038 15348 -6414 -756 25133 27598 -10198 7304 6898 34573 9298 23566 -13855 13280 1933 19132 13326 -7295 -15947 -33684 -2989 -3572 -17032 -7508 -25680 7954 -10470 17164 2734 15770 6834 11988 -9953 1027 2025 15 -2277 -642 6 -4913 -6286 989 3611 -21935 3471 1610 5457 -7741 -9645 7093 16957 -10882 -13312 -10645 -13987 -2319 -10783 4229 28634 12925 25053 20968 34099 16103 15729 998 -54499 -11875 -5306 10677 15340 7791 -36951 -8 19352 -8490 21856 6232 16405 19564 2197 3762 -14020 -8197 13207 4873 1283 -2213 6231 1518 1126 -6574 730 -5649 -1995 -12940 1635 -28335 -18 9 10 24 36 -35 1 -22 -1455 10724 635 791 -13147 329 -12578 -11094 6507 7143 7988 -36 -2349 -11790 -1551 -14288 2583 4364 -2770 3131 -17853 -5581 -13899 -6764 -13901 593 -4496 4467 -11556 6872 -4297 -7880 -251 -10099 26422 4013 3044 14691 8792 -5564 -18932 -3692 -12133 -1214 -13949 -16118 9687 6159 6 -10 -6 11 -13 -13 -28 31 11068 2650 -4394 -4654 5369 -25345 -8793 -24251 15829 5292 16372 -2369 3573 -18696 -1031 -10121 1200 4990 2191 9830 -12535 -6458 -21510 1007 -4885 -5354 2173 -5144 -5031 -10951 911 -30272 15020 6713 23180 19963 -5770 9983 3568 -42603 -16740 610 -23999 -3628 -3149 8498 -2062 -4518 -10904 -46245 5800 83 1686 -7860 -19611 -9370 -35652 1978 9729 23011 9807 10029 8875 -10552 10605 32497 4456 -2862 -11629 -19456 13125 17592 -5724 13490 -2321 208 -4270 3304 7550 -22118 -3166 -660 13655 -6364 -4616 -4875 -4857 -6029 1354 -11433 -3928 -9754 8355 7838 2535 -12959 -10379 7851 -12491 20958 3563 5662 6099 21358 3534 -5252 -3006 -9667 -19693 41 -3165 3707 -28347 1824 -11016 4723 -23118 -7074 -18681 -5707 13979 -7006 4361 -10906 -10360 23342 3095 8376 1076 -715 -5808 7300 4748 -4067 -11189 -12113 -2054 11917 -6400 -5112 -1018 -3256 -3470 -21772 -2268 5358 -3137 13570 -3490 -1429 -27633 -21580 -2783 -18896 -11161 -31181 -37417 -7216 13862 -13942 -11590 -59589 3653 -11136 4390 -3311 -15428 -12526 -7055 6935 -33780 -32312 17081 27050 6561 -23094 13636 -28384 -16314 -2097 32139 -57288 24296 6538 -37762 -16801 20522 50063 -2511 16400 -9331 -39582 -12822 5604 6474 4144 -22972 -9528 -40376 544 -6528 21034 12651 -3135 -16165 -47568 17207 -13552 10663 10233 -11075 -4808 2910 5733 -27262 -8320 6532 -14828 12227 -15809 17587 -42192 14061 -32706 -27919 -4495 -1455 -13336 -22763 -672 6214 -18396 -6252 -21212 4607 10766 7035 -3845 -38779 -2528 15109 716 -16281 2203 1716 -20475 -67731 9160 -14834 -13777 8143 -39768 -4420 -23499 23012 -8654 -2643 22049 14245 13883 8474 374 -7923 11427 -11809 -10161 2026 8366 4265 -4447 -5124 -9423 12475 -8736 -11450 -15371 -3076 6030 -11749 1714 -16695 -24521 -44205 6016 -8577 -2521 -6851 -11621 39906 -2684 -48293 -31288 8583 -14473 -2345 11960 32484 -1035 45 -3154 1803 -4873 4650 1973 2297 -15069 -11588 -2272 -4141 -2868 2642 8550 6290 -3 1286 11 2916 2562 306 5016
34 -32 16 32 -2 4 -1 21 -25032 -15087 -15233 -5240 9494 7297 11408 9751 8460 1646 -21516 5362 -3402 -7419 7760 -5723 -16566 -3155 -11106 -3567 -8898 -280 -9087 5929 8391 2173 12204 -1231 1441 1530 3069 1817 1423 5403 3913 10112 337 10743 3130 2187 3444 2613 10101 1851 5896 3371 1965 -5037 34 21 -15 18 -1 5 29 -6 3511 49455 -2793 -21154 -17717 -7642 10333 -8490 -10398 3049 -11001 -16548 -4736 -5728 -48390 -5917 -3012 -5762 9096 8969 6372 -2980 -8689 4932 -7065 4381 -9755 -25953 12643 -12602 11158 -23478 -37019 -6725 6307 -7588 19311 -12674 -1731 8482 9202 8324 -265 -13299 12060 2773 10439 8124 8858 4032 8146 13580 2584 14828 -27244 5296 -35733 6904 2915 1619 -4040 9982 6977 9567 16380 -19714 -3007 -7259 45263 16735 14407 15068 -8830 14205 -17784 -868 -18120 6501 -13939 10495 -5650 -15245 1541 23156 -475 -16789 11059 10142 6316 -21830 -30246 11193 -1383 -25649 4200 -20049 -18975 7541 2848 -9967 20527 5760 13837 19878 6063 -2702 -1097 8519 11522 4009 28348 4665 -28373 -2180 5623 16740 -539 5730 5140 12858 22597 5080 6998 18152 13680 2469 6604 -14112 30488 -19594 -25758 32013 32238 -4359 -4829 15612 6130 25863 31316 31822 4831 -21605 24258 31698 -3446 -16478 11649 -30170 -30125 37743 -1964 -2440 5106 -9595 -13980 1674 17601 2874 -33363 -27853 -6616 -22789 -3755 9282 191 20408 28191 493 7698 8359 6176 -14485 11307 -6857 24158 6767 3725 2825 -12582 -4879 -26919 10565 4048 13408 7856 4250 -3045 9255 9026 6088 9686 11415 6466 -26116 -34972 4201 -19228 16644 7539 41656 -15263 -1054 -9542 18904 -3804 8183 -3865 31684 -7001 -33969 13571 -462 -35766 -31418 -23478 11407 -5381 6059 -29230 -673 -5252 -30205 14963 -6365 -29888 -16590 19613 8277 40820 17395 9558 6405 -3032 22386 926 1609 16823 3722 19656 26490 -108 -962 5218 10606 6615 20959 14878 -1102 15158 11375 12794 4307 19919 12835 32754 1733 -884 -14 -2269 -622 1 -4988 -218 -1205 530 3702 8331 10312 4405 17570 -7609 8800 -10257 14191 -8845 6695 7971 -2586 -15467 7185 -8327 -20512 -17670 -19715 28690 -29609 -3254 -12716 -1354 7176 -15058 -36332 10065 8438 9415 7157 -32229 651 6926 10885 7863 8581 9812 -6221 -125 2929 2592 -6395 8143 3169 12495 -10745 -6309 -3483 -1570 -7905 1087 6363 7785 -7951 33 -23 6 -28 -31 -28 -15 7 5713 1704 5169 -2681 2108 2889 -638 1398 3439 6338 -187 -2213 10010 -7769 8671 -6479 -838 2374 3041 -24081 -973 -20713 -3757 -6857 -11143 -2247 -3386 -7087 -1922 -18782 166 -11278 17485 2029 4562 634 -12651 8031 -10261 1803 312 -22840 40227 -53 -21206 -17810 -29109 -11907 10 8 32 19 -23 10 36 -34 2740 -6643 17850 -7419 9581 -9253 -6482 -13501 -9930 9008 -10988 -6587 -9032 -14139 9723 8173 -2676 4545 -12090 2806 -12161 -17071 16937 -11452 -16220 22851 -12917 9097 -9541 -8006 2615 2592 6377 -6855 -13595 -334 -6802 5355 -3675 11427 -16245 -24013 -15760 -10496 -4498 -4148 15076 -43626 -3936 21934 -2426 11298 -13390 1478 3993 -8432 -54915 -2753 10204 -800 27967 -12257 5938 -23643 -12708 327 -12993 -3697 5204 -10338 3234 -17314 11703 -21661 -5483 -125 -14068 -26879 -9498 15610 -9053 -21480 -26827 -9114 -920 -18486 2002 -9025 -16553 6892 -11718 -1957 -17996 -10631 -3462 -923 1497 -902 -10358 88 4852 -20492 14795 -5076 2108 17975 10089 -17053 -21976 2352 -17391 -3741 -8614 -4585 -23859 -12904 -7136 -31431 -21456 -23476 1980 -7215 -43095 6957 -23123 265 17600 -8118 -2267 1153 -2418 -10329 1724 2569 -9024 -14082 -9265 -3423 -2878 -7369 -2100 -2407 -7237 -6960 -5889 -17835 1170 6179 -3495 -16096 -11702 -11456 -7723 19526 5049 4500 10303 6216 -1866 -27218 -7471 10291 17305 33439 16527 -4259 -5213 -11149 5188 17390 -34516 -22441 -56178 -25208 -4263 -6418 13297 -17123 -31419 298 -9153 12462 -7216 -2260 4138 -7436 8087 -6195 23379 -33781 10845 -30594 -34746 -6311 -6489 -13117 -20991 -25299 -12524 -73170 -18488 -16906 -9908 -23952 -9057 4830 -22155 -7029 -12979 -32130 -5615 -22242 -19549 -27438 -3887 -5290 -12298 -5327 -25581 -2504 -2947 -23949 -5170 -5773 -26898 -37701 4740 -34882 16985 -31040 1514 -19933 -8370 -986 -35495 856 -6101 -13561 -44527 -9585 -29737 -86519 -14279 -2913 -12015 11820 -1790 -21890 -27367 -24801 -13536 -2086 -13417 10280 354 -22672 -17674 12530 -2712 2385 295 5961 -16020 10216 16213 686 -5639 -1274 -3060 12119 15242 -10404 -39900 -14397 -23360 -18712 6791 8578 8475 8864 -21817 19403 17230 -22534 20858 18743 9878 -2818 -18946 15848 6494 -23753 -42794 -5490 35473 17653 -21124 -10732 -19136 12516 21 -21400 4061 11121 317 11841 7387 -5976 1703 10498 -14672 3393 783 -18 -176 -11 -36 172 664 5767
-12 25 25 -25 7 -13 9 -25 3823 4274 -2981 -1324 10495 -15587 -24700 19144 -6302 1923 -13314 4663 -44 -812 6008 16233 -3284 4404 6182 13066 -8370 -6335 4570 -4869 -14576 4933 3588 3935 -9330 -2249 101 -16554 6061 3950 -350 -19213 580 764 -2000 847 -4681 -4097 -14762 -695 -10445 -2148 -7723 -4623 -27 2 30 22 11 -2 -6 12 21441 3425 17838 -8623 8221 -24128 8503 3236 -9120 14093 -18587 14892 325 -20431 -22314 7129 5021 11486 -16653 2129 -3853 -6619 20505 115 7883 -1073 464 2922 14295 16490 12427 3051 -8000 572 -9180 -4313 9865 -30667 -1237 4247 -6460 -22228 -1371 -594 -30384 5895 11928 -13650 16146 4798 -6547 4896 -4981 -10997 15883 5722 -12469 9340 20024 -3672 -6310 3980 3646 10042 -6592 -16050 19308 -1401 -25026 13165 -26371 -28792 -32405 -12455 -1895 -31265 7653 -2705 -37319 -2351 8853 -20149 -8502 12449 4323 -20057 2996 5002 8937 -16319 5929 -18282 2354 1450 8341 -20475 -14576 -4458 1144 13118 6678 -3665 -14827 6820 -1159 22892 2380 12271 -15574 16009 8297 -6305 -3180 -10391 5865 -5824 6365 -5408 -7935 -7428 7960 -26607 7500 -7917 -40872 -3593 15981 -20591 19546 14725 -18684 10267 7987 9157 20850 -16631 -12575 -20210 3754 207 -6118 -12693 3693 -24885 9135 -15123 -20142 11097 13392 199 -23956 9263 18229 1957 7970 11721 -18428 -27784 -23561 -2114 -137 5803 3170 -8086 10969 7472 -6722 -12297 4400 -7676 -6425 -6268 -126 13406 1448 4108 922 7154 -6730 -11286 10614 6787 -15194 -8164 -11040 -6414 2243 1630 -25062 -7638 -17637 -2210 -593 16854 13256 -9657 13820 36221 26554 22568 11119 9886 10697 26172 5213 5813 21571 3492 9882 25749 -5422 21336 17893 4876 19831 18456 27749 -1200 23417 971 11679 7965 26242 23925 21938 -3907 -20082 20283 -1158 12126 18987 24211 -17071 6905 18583 -35353 -9535 10857 2831 12043 -14575 -13299 46 4616 5560 15150 -14109 -5947 -725 -31374 -25335 2773 -13118 13087 -3584 -18013 -360 -27 30 -34 9 5 8 12 -319 0 -347 -13 3 0 22 -3 -7674 437 -2916 1443 3902 -634 9105 -507 6779 -24611 8142 4636 25155 5607 5709 2213 -3444 -2196 -2751 8628 -2742 28589 -12283 -5835 11007 17610 -5213 -36215 -1009 12620 6228 15695 -6358 8901 -8611 -8646 -2133 -1912 520 -32911 -5591 -578 1811 -770 3070 1163 -2130 -24910 -36 9 35 -25 -3 19 7 -34 -7107 -8654 -11993 144 -1199 -4591 -6246 -9178 -10658 -12181 1549 -6759 -15203 -8090 3986 -9496 -8737 364 -3428 -1880 -6548 -8635 3305 -7868 -333 -11607 -12797 -6587 -24007 -6363 5715 6129 -4767 -6310 3584 -3994 -13228 6098 -6778 14274 12313 11127 -17094 9859 -3583 9050 16049 -9920 -11 29 -7 28 4 -20 -29 -22 11824 -5174 -37841 -7149 6035 4381 -3369 3205 -9463 1048 -2276 -941 -7926 -16206 2447 14849 -9991 -8381 1749 6297 13139 8541 13178 3973 5608 -35430 3479 747 5807 -14572 -12009 -7508 -10878 -2908 -768 9944 1923 -12207 -29206 4224 -35253 -7986 12269 9276 15631 19974 1580 1079 1475 6724 9196 171 4396 15313 1576 -10351 78 -17823 -520 1198 3691 -5681 13450 3149 -21588 -2182 -403 6958 5227 7030 -9461 -6186 6123 8013 10766 -17185 4164 -14409 -8307 9547 -9463 19076 -28714 -7050 6513 466 -3937 6355 540 -11343 8019 14616 3882 1594 -6721 -11295 13072 -8313 12819 -16158 -8830 8231 689 17707 12940 9567 -14961 5893 -11470 -4149 15964 2577 16136 -7827 -15457 -15254 -21473 -11917 7921 -25552 -3666 -5725 -10173 -12997 14511 14217 29965 -19960 -12379 2439 -4777 -6575 -6974 8611 8310 -6027 -16347 416 -8646 10650 12045 -2690 -5618 1692 -39575 -12098 4478 3218 7247 -2291 8446 2119 6780 5997 -7433 -10751 -2576 22322 211 3543 3973 11674 8034 24505 6490 -16311 10708 15622 2813 -16565 -25112 20083 16053 2565 -23074 -13421 -14961 12418 8473 -5272 16952 15741 10987 17482 4014 -6347 3266 -17978 -13366 6166 16309 12563 7079 -29449 -1868 -34178 -3270 -20445 4125 4488 19797 7224 7994 8411 -26045 4141 7475 8381 -4891 7231 3798 15081 -3394 -19444 -19981 25742 3285 6933 26417 27443 9785 5417 63 -29022 31235 -10478 22057 -1346 -20022 -2938 23286 -1642 26265 10952 32129 -67 6312 27763 19633 9223 3126 20422 15140 -1360 9123 -10046 -7600 -33240 -24173 7325 5051 -6125 -2210 1043 -54 -9048 -11572 8697 -12632 5835 4432 8784 -11724 6700 -2374 11474 5121 -6814 -13124 7444 5295 20866 -27710 -19658 -18761 4206 -27132 -7785 5043 1311 1939 -14931 -11692 3105 10430 6204 -17801 -4529 5430 8842 150 -10984 27877 -7615 10153 24574 715 -9185 -986 13243 -1316 11568 5474 3550 -35 -12 -435 33 646 797 -20 -7632 29 21 21 14 -5 5 6 -27
35 24 30 22 -12 29 26 -16 4153 -1214 13450 2412 9376 762 18224 4075 3566 1423 3522 4355 2509 2250 3311 344 1523 5908 3581 4420 4175 2689 4668 -998 1102 3250 3234 3892 5177 3989 3561 276 2118 2136 3812 4560 4598 3982 3123 1307 1537 3941 4394 3952 3180 5037 2724 479 -14 4 -15 7 -36 18 20 28 6302 755 6079 753 7851 3377 -1228 5155 7531 548 9951 4052 2827 8480 2212 5978 13602 11951 6458 5597 12100 9731 9462 3473 2871 10347 3877 8910 7312 10125 10615 7555 10894 8893 10765 8388 11930 10943 2385 6200 11418 12262 11154 13772 11866 11981 11627 9789 8394 10678 12335 12812 10404 10709 7681 5567 11664 10048 9557 11012 11178 10427 9737 3549 5868 8854 2470 4113 3548 7583 10933 3002 6597 3736 -1031 2292 9211 8955 9473 7047 7928 8748 10463 11659 6068 9900 10701 8487 7211 9725 1446 8578 10059 7646 9117 10558 6488 9836 7334 15683 11810 10507 6660 10075 9372 11294 8359 10193 15093 12844 9102 9931 9866 13927 11940 14457 15318 14489 13544 14389 14895 14750 13168 9782 14322 12580 6421 8306 3074 8746 6168 9407 8443 5121 13197 9763 7688 16538 17838 25078 9820 4319 10738 4711 6124 1620 15983 9196 12952 11600 16264 2741 8721 2757 10778 12708 -271 6247 8221 6056 8786 10155 8555 1647 2711 15624 11062 8749 10712 11394 12092 9906 13508 9477 9307 13384 10661 9793 6273 12263 10769 12444 11636 12425 13699 13669 12591 15626 13514 12970 12625 14053 29323 14874 10300 4886 21314 13609 16898 22889 19583 18837 14735 6113 -11765 13366 20357 14884 15533 4836 9417 16741 4906 2474 17399 21415 23938 16190 10641 14553 10781 17986 19953 22634 25795 18024 20959 13648 28337 27819 31725 27348 23406 31526 31008 32867 31273 29380 27886 28737 27696 33112 31788 31446 30181 29192 27033 27131 29409 29909 30503 32320 28276 29076 31609 23749 -5028 0 -349 -292 -24 -2634 101 659 12185 -5749 1141 -4440 2313 15538 -8687 329 -7639 -21723 -9983 -7229 2525 -12338 -11422 -19409 -7146 -2756 -15043 -44296 -10247 -9461 -16313 -18684 -8673 -6034 -15741 -13051 -10550 -16127 -7863 -13237 -13406 -12969 -7901 -9017 -7479 -7430 -8779 -6314 -5409 -7422 -3626 -4683 -5866 -3557 -3801 -865 619 -6369 -6036 -5232 -2632 -3626 985 -7287 15 21 -25 -20 -25 21 -20 -2 -455 -4137 -2871 -2108 -2186 -2654 -1874 812 310 -2753 -2706 -1983 -2636 -2378 -2323 475 -483 -3710 -3931 -3204 -3133 -1827 -1858 1001 -1042 -5408 -3427 -4618 -2165 -182 -4369 -796 -2709 -2255 -7483 -5536 -6960 -7057 -5745 -12106 -34892 -16144 -4315 -11981 -1423 -7948 -18677 -7948 -9 7 -16 19 22 -9 21 21 -5132 -9231 -14348 -10530 -8106 -11606 -9546 -8301 -6769 -6507 -13790 -11584 -11979 -13219 -6888 -10243 -9053 -12963 -11201 -10048 -7322 -10071 -11606 -9954 -12866 -7749 -9142 -6451 -11124 -10599 -10290 -8241 -9776 -12683 -11987 -15913 -11366 -12778 -10802 -17558 -3174 -11480 -14518 -12443 -16170 -16906 -11239 -14677 -5144 -9622 -8178 -5800 -6298 -13648 -9190 -7553 -4022 -8838 -4289 -10683 -179 -3389 -7727 -11223 -10240 -10459 -10963 -15804 -8055 -10438 -8328 -13819 -10319 -12334 -8826 -13251 -12204 -10581 -11184 -7130 -10943 -6828 -10596 -10037 -8997 -10817 -9429 -9230 -9260 -11338 -11129 -12652 -11588 -8258 -11370 -9273 -9162 -12158 -10518 -8869 -3200 -10007 -13094 -11765 -8030 -11513 -8211 -9729 -11483 -9890 -14750 -3341 -6218 -14082 -14352 -5011 -14585 -15969 -9884 -6968 -5295 -4147 -10930 -11632 3470 -11608 -7128 -12457 -14683 -13797 -13947 -15871 -18721 -13945 -14384 -14923 -13740 -11972 -16609 -12733 -14594 -12908 -12785 -15012 -14444 -14233 -15033 -9898 -13944 -12886 -13156 -15251 -15351 -16633 -12990 -12771 -10577 -13865 -12797 -20313 -27005 -19878 -14036 -16091 -16304 -17681 -16762 -13390 -9105 -22000 -19008 -25101 -5789 -19428 -17816 -21913 -13467 -10896 -15557 -10410 -1716 -12532 -26753 -16349 -23598 -19999 -15727 -3039 -31266 -23498 -25711 -11295 -32237 -33168 -31306 -33061 -31591 -32505 -29355 -39059 -27592 -35539 -31296 -33757 -33383 -32268 -47226 -28957 -27026 -32851 -30057 -36666 -30868 -32520 -30928 -30137 -32076 -28159 -27913 -41700 -38885 -25431 -28803 -26432 -30836 -35843 -35876 -28381 -53762 -49745 -27862 -31830 -20422 -48510 -23324 -15681 -16692 -3760 -24858 -9983 -3595 -36361 -29754 -10467 -42423 -18208 -12102 -22873 -22477 -15652 -33692 -31470 -20190 -13974 -29338 -34799 -1455 -13683 -7067 -4769 -5688 -7010 -5543 -7847 -7803 -4947 -4480 -5669 -4600 -3943 -2755 -3414 -2526 -2778 -3935 -1202 -549 -4666 -3692 -4463 -3430 -1107 -4174 -11350 3727 952 7466 1613 -13924 -13060 1840 5956 3359 5803 -5635 -16718 -4485 10580 6293 -4851 -2246 -2072 77 -9134 964 1250 -126 -643 -717 1360 -564 1306 -542 -16 -1232 -8 -1132 183 290 -4093
0 7 33 15 -26 14 -5 -17 17493 -8039 9799 -10098 13186 -5769 12816 -34703 4365 -5437 9691 11722 15651 -2552 4449 13400 -10174 9555 4121 -13495 -22577 -6566 -8488 -4118 -2397 2512 -3607 -10060 7487 -1959 -2981 -10558 3018 -3376 6511 -18983 -136 -11143 -4797 -5784 -3116 6575 -1681 6429 -12450 8409 3096 -3695 -27 8 20 27 -18 -12 -29 -8 12411 1513 -2181 -2237 7483 -9124 -23138 -5123 5386 13542 11585 -7833 -8682 25009 -12192 11181 16231 -38475 -8603 2753 8260 -701 16644 6878 -11396 10243 1987 -7529 10572 -18680 6741 18879 11359 4836 8210 2273 -4812 -99 21025 -7015 9785 26871 2097 5547 8341 -539 5962 -10848 7801 11650 -22605 -11935 -6200 300 -31181 -7048 -16344 1256 -22167 -165 -12170 -14254 52 11833 1084 -11298 12588 26184 -15048 10289 10718 11555 2113 -4927 -11970 -27275 136 6182 12340 -3685 -1224 15232 -9149 -2070 1385 -825 3584 -2826 3659 15060 8673 -3433 -3784 -4321 5242 3374 5710 6130 -5012 3382 20278 18851 -17249 9016 -1519 3696 17399 -2747 2779 -4787 -23488 9712 82 -13832 12102 -14820 -9898 -13034 2639 -7239 -2097 433 507 1864 -36220 -706 1222 -506 7513 10972 -15166 -3450 8629 -5710 11718 13023 -8017 7071 37951 1548 -13563 -2750 3866 7569 4931 -23295 -1329 -16595 -13158 -20859 3860 2680 272 6743 68 -8512 14271 4335 5986 3510 -12551 1175 4425 13174 3165 -18425 -14343 -600 7235 11354 -20579 -12626 -13927 -16665 6872 -7801 -1482 -18617 22231 9691 -1274 979 7161 5773 -1667 4319 11572 13995 -5828 6524 6530 2129 8992 -1361 31785 3073 6657 2096 -23051 26486 24089 22558 30293 -17268 5217 -13415 -13362 13038 15485 -17455 14970 -2281 30904 39192 13275 -8232 17955 11345 -4331 26495 9030 -30832 18151 6711 -13647 -5774 22549 29930 10130 9414 15065 3303 16680 22400 10690 18234 18969 -25499 -19114 4880 22302 14665 25238 -7807 2627 -4998 4138 930 13936 -22042 8714 6998 -14980 5187 12533 18979 -2980 20 -357 -288 26 2636 578 -10 -295 -4453 887 326 1209 1918 -1007 -1110 3656 -10648 -12306 -4536 -3905 -992 -10668 -3578 760 -3745 -2676 -1866 10318 10557 -18575 9116 -408 -7642 -27441 10258 3842 2942 5690 -3250 2559 -13511 -6220 -28480 -14291 -12912 10027 12830 -25456 -36732 -2585 2938 6976 3433 -675 9168 -14172 -17540 -3996 -11665 1052 -3297 -6181 14149 -5 17 20 2 1 -13 -25 29 -4400 -2939 -1704 -4193 -4179 3146 -5980 -1819 -11454 1511 1 -7568 -7563 -10006 -5800 -1019 -4763 -20966 730 1291 2242 -6292 -9184 -9183 1035 -4010 -7760 566 -9164 -3425 -8729 -2993 -4700 9710 -7218 -22712 1968 -6827 -20480 5785 -25559 -18956 24311 4257 12679 -23860 9740 -5657 -9 6 -31 -7 21 17 -28 -35 8523 -17171 -13076 -18120 -6714 -19628 3412 4803 8586 -20961 -14621 -11491 2751 -37600 -11057 -11147 -4852 -5684 2306 7892 5852 1302 -1062 -7456 1243 12213 2843 -18484 -8407 -28096 11353 7719 2838 13383 -10593 1919 -25620 -24287 -19744 -37241 -7597 -874 2945 2900 -7818 6755 -13383 2634 8721 -4412 -2503 -17619 -18422 -29387 -36563 7283 9421 7702 -705 6086 -17380 -32165 4021 12209 -18593 -13504 -3805 -29061 10363 -10305 -15938 -249 -17386 95 1812 -13717 8201 3641 9562 -23919 2391 -1547 -20509 -7016 -6765 -14335 -26072 -27364 -5414 -7267 6607 -12723 -15594 9083 -7324 6036 -12103 -1171 -13916 -26852 5476 -17504 -574 -27772 -50255 28288 -18063 -71 3894 -8961 -5162 4313 -6269 -28479 -8091 -12034 25078 -24449 4689 14513 10923 7423 -5460 -16268 -1820 -22766 -8029 -7109 3035 -3000 -1514 -7948 -6846 -9377 -1408 -9074 -10023 -216 583 -3225 -17730 14315 852 5536 -1200 2326 -8890 1871 -17250 -8791 12567 6526 -4634 -7766 -34266 -14948 -45939 817 -19680 -1190 -15628 -9085 -33796 -3389 8415 11007 1778 21440 -20185 10992 7702 721 -5766 -31264 17493 10746 -1240 -34665 -14725 12133 7343 10516 -2920 -20343 -35578 11916 -21774 283 -18884 -14820 27493 -20789 7884 -25118 -139 2418 -6453 -9153 -28195 -10040 -15408 -2267 3556 -1834 112 5390 12132 8703 2022 12425 -3821 10210 -16144 6362 3088 -47655 -19217 5640 -5385 -4962 10677 9999 11993 -15041 -42050 -1654 27806 5440 -8087 31194 3171 -8353 -42846 -26951 -21728 12843 7732 -39848 20082 17215 -10545 -43032 13073 -9834 1026 -13308 -6653 -8036 3958 -26593 -15271 -5312 -6980 -16499 12053 -16983 -15725 -10519 -38325 7089 -16045 -3147 16618 2207 -18979 -12215 -11205 6767 3635 1197 -4507 -253 5575 13936 -7162 7571 3481 -5544 13892 5242 -10645 7428 -2106 25206 -26458 3977 -3675 -5161 -7994 1899 1113 -5193 -161 11468 -8835 7340 -1730 1044 -168 827 -43 1600 1534 14137 36 574 -959 -1322 -431 -1354 1327 1035 2586 27 1730 -18 -2430 820 301 -1300
14 12 12 4 -12 -23 -9 33 -1842 11959 1202 16572 -3321 11864 -35140 9035 2442 3408 1290 9021 -2664 -26610 8142 -9285 544 -9973 7913 -5225 11121 -1009 2741 7704 -11234 -344 7146 -7037 790 -5242 -3293 -4257 -3410 -8903 -5998 -2249 -2743 -4239 5128 3869 -4410 -14847 2874 -9945 4180 -15770 -4790 7976 17 29 -18 13 0 -4 -5 -4 -10058 -178 -24401 4065 -18748 -6776 -6283 29401 13463 -32579 19467 265 -15152 14024 10291 10262 7228 8697 4268 2685 10260 5279 -4876 1674 -8677 5071 -5294 12289 7685 -5813 -19167 -10945 -2480 -4153 -10816 3171 10248 2429 12885 7305 -2843 -14530 -9269 -24512 -17956 -3129 -2704 -250 -23497 3006 6865 -7815 -5550 -959 12267 -14960 -5175 -18912 -22266 -1289 -4806 -26797 -6452 -36016 -867 6972 6908 23955 2940 10601 -5650 -1246 -2276 -7592 -51307 -8866 1303 -30182 -24133 -20596 -1527 705 23833 -14743 15669 22064 -1548 5726 5669 8843 -18411 18664 6765 -14843 -8327 -33518 2045 3719 -16471 -6334 2537 -21561 19695 -16007 2251 -25699 -21370 2846 1224 -874 -12205 9279 -8437 6754 5351 -4033 1910 -785 6202 -701 -27571 8688 -7551 -16719 -19172 2954 7978 2653 24828 13314 -4645 -2752 -402 29617 30822 -5364 11826 13051 -13597 -37503 -1907 -24782 4770 -28332 6735 -16366 24816 1202 -19394 3361 29216 4085 2933 -8715 -18534 -37647 7867 -17750 -1177 16006 7792 -13609 -2919 -10365 1027 8674 -11954 6750 -3795 14850 12975 -69074 18342 -4286 6600 5182 4716 1910 -8481 -19242 -374 -12815 9581 -8145 -1515 5496 12493 3271 -5100 -4463 -2975 -1096 29109 -1677 7364 525 -7658 4739 19637 32864 -6130 -9543 -9522 -5918 30226 -20228 27922 15633 28519 15714 -4069 16257 13240 16006 14343 -4954 16760 -34916 21066 -3785 33263 9339 10691 19607 5639 2826 -14502 -8880 32722 18044 17705 -19816 -26070 -636 12183 -14357 -3297 -11063 6387 18642 -1092 4744 15086 -10984 -13236 -23392 -13099 -14441 -17367 4535 2667 -4020 -11714 874 -32645 14399 -812 -5 2109 -7 0 -4973 -320 34 2757 -162 -4040 558 -331 -2059 -8477 -1980 829 -1823 10498 -3330 -22757 -4332 -2529 10958 3768 -29701 12464 -9134 -16366 -5044 -45087 -2069 -28387 7533 -9745 16789 10718 26724 14431 10866 4936 15068 -9242 1168 -10023 3746 14435 23877 11411 12728 12326 -6406 -19504 -2308 -143 -2901 9220 366 2468 -11358 -14374 10665 -6651 -843 17 -10 -32 -9 9 3 -34 23 -1586 -2736 -5164 -3022 5024 -5013 7396 -7766 -7790 -10992 4316 -3709 -11380 -16309 6209 -7456 -2144 -14986 -11714 1117 -7890 -2167 -1259 6879 4324 1681 -12069 -62 -1394 -11184 2491 2766 -8009 8064 2289 4244 -16577 8208 -4755 -9364 -1066 3329 8514 21535 31291 -2612 2775 -1309 22 11 -7 -20 -33 -1 15 31 5739 2548 -8011 3386 -10619 -3434 -7914 -11753 7155 -47 -5433 -14044 12537 -8322 -641 -16686 -13889 6231 8207 -21771 -5496 -723 -9706 -4080 -2389 12126 10000 -24987 -19391 -6160 -586 959 12381 -5717 -24585 2982 -7711 1353 -14097 -17594 -15779 -15156 9251 1667 3975 17417 -15471 -13942 4585 -185 -7839 2438 23191 -568 -6047 -9891 10719 -7548 -19952 10618 8580 74 4350 -37844 -6069 -9540 -341 11112 -22669 -13973 9377 -16933 -1268 10928 15814 -3823 1131 -1655 17098 3126 9201 11802 1963 12922 -28081 -4704 -1623 4843 4970 -62891 2589 -7173 5787 16364 16332 19606 -9656 -1985 -9360 5493 9140 -52004 9520 -13280 8589 -2584 21047 4311 2274 18138 10058 7675 1075 9110 6148 -5407 -14616 8744 -6215 -56698 25788 14244 -10363 15530 19710 7157 -8118 7538 2581 6040 340 6330 -8327 10300 1943 7271 -3783 -5676 -3666 -16994 -684 -3656 3190 -9969 -1987 -5633 -3699 -2091 18250 -23427 15568 992 -7494 3901 20927 5600 13842 -11304 8636 -5458 15193 7811 9078 3696 11205 -13286 -7543 2930 13948 -12960 31942 -16732 -15613 30635 13387 -7237 -22383 4689 29480 1578 39094 -6965 4813 14497 -1800 -6236 -3770 -11712 30799 544 -3271 27809 1161 11700 -9833 -3930 7496 11213 9996 -6964 6157 -2486 13170 5853 7325 484 26239 2210 -22488 9941 -7157 18305 -26235 15400 1416 -45922 -11845 -7828 -7116 32259 30783 19251 11392 21878 590 9203 32720 1022 16214 22110 4227 21137 43741 7852 -5584 6722 38757 -8852 20183 -2336 33568 18473 2364 63519 22153 1441 -14579 -12324 -3581 19233 -15846 26905 16556 -12365 917 17133 -43351 -23130 -4606 58 -4848 1124 2406 -1981 -46768 -1426 -28439 2547 -8389 3261 -9724 10713 11327 25200 4073 -821 11086 8344 685 23883 18081 16005 4523 2149 -9523 4754 1567 8414 -20147 1337 -25499 511 27858 34659 12217 4588 8468 -3310 -26440 2610 18244 32823 -28355 4196 22 -667 6173 6624 14191 -243 -655 12909 -325 22 -472 -14 358 34 -294 3239
-1 33 31 33 7 -34 27 -24 27 0 -33 -18 9 -2 17 -16 -72 17 25 -299 35 73 -71 39 -5 17 -32 -66 15 -72 -78 -43 -34 -125 -71 21 -158 -14 -78 -111 3 -205 -321 -53 -115 4 -46 -334 -94 -16 -124 -94 -75 -32 -241 -121 -19 16 27 -11 24 -31 -12 -20 -316 -3 -1 -27 28 -45 -29 -8 17 21 -18 -30 -24 15 -2 33 34 178 -20 -14 88 -31 -65 26 -5 79 26 87 26 -303 -34 -14 -28 -48 -48 -115 -120 -40 35 96 22 -31 -31 -251 21 -43 -291 -22 -51 14 2 46 41 -39 -1 -12 -26 -71 4 -43 -34 24 -88 31 -21 31 10 32 -19 32 34 53 -8 -12 13 13 21 2 18 9 -26 18 -194 -22 3 -35 -22 -26 -6 80 4 -11 -45 89 75 -9 36 -32 -346 -29 -31 -10 -32 12 51 14 -246 26 -91 6 6 -52 -44 -142 -27 -66 -22 -3 -50 -54 31 33 -48 19 7 -66 -35 -24 -10 9 -213 10 6 -322 28 34 -28 -36 12 11 -17 23 15 -80 17 -9 -60 -26 18 -30 36 6 -1 -29 -65 4 -234 30 -22 -18 -36 65 11 26 23 20 -172 -17 -41 -27 113 26 170 -36 85 -37 -21 57 7 -78 -9 27 -26 -281 -91 -37 -49 -65 45 -295 -185 -38 -280 27 -31 0 33 -21 4 -27 -25 33 -10 0 -286 27 -32 -10 20 3 -11 -22 -10 -22 -15 -51 0 2 91 -3 -176 -30 50 -33 -7 -27 22 -29 -28 2 -34 10 3 -17 -5 80 -1 44 63 18 60 -60 117 38 82 -70 -32 -7 -33 -21 68 -118 38 -24 -52 26 -34 -11 -8 33 22 36 -14 27 -17 -24 -24 -35 -19 -17 28 6 -29 -1 -28 15 -30 7 -15 -29 -32 12 0 -24 18 49 32 -1 -23 5 -35 -22 -33 -31 29 -28 33 -97 -35 81 -82 -54 -17 31 -180 -41 -21 -244 -117 41 -58 18 21 -47 -200 -89 -10 -87 126 8 -17 3 3 -3 13 -23 -28 -3 -38 -44 -47 -256 -89 -24 -134 -35 -371 -131 -127 -50 -33 -93 -99 -280 -90 -94 -63 -111 -78 -76 9 -276 10 -77 -104 -160 -29 -9 -10 -79 -13 -257 7 -27 124 -88 -16 -132 3 -36 -23 -4 18 0 24 -8 1 17 20 -20 -6 -27 -6 -29 -3 -112 -13 -211 -32 -72 -10 -8 46 -78 65 17 86 -53 -24 -40 126 -51 -60 -22 -46 -31 3 -21 -14 -28 23 -35 -80 -59 -19 5 1 -75 -21 -290 -82 -10 46 -195 -13 24 31 32 -34 31 -43 36 92 -26 -42 15 4 -26 -32 32 23 21 -35 -2 10 12 -30 -11 25 34 -317 1 27 -85 4 96 -26 -47 -52 -100 -1 93 -39 -20 -149 -35 -8 -18 -283 -82 -14 29 22 4 97 -69 -280 19 -17 -89 -62 -46 -18 -3 -7 22 53 -267 -84 90 -19 -34 31 18 -56 -36 -9 -195 -13 -105 15 -27 -2 -30 -79 -80 -187 -25 -9 30 -13 22 -92 -73 -23 -74 144 -57 -220 -53 -310 -198 31 9 0 -22 60 -22 0 -50 -22 -11 -19 -24 -21 -290 -52 -51 5 -10 -27 -158 -345 -35 -78 2 -24 -28 -11 -32 27 -13 30 -3 -25 -25 -11 17 -4 -28 34 -3 -12 -27 3 6 94 -1 16 -35 -1 24 10 13 17 -6 -20 52 -127 11 -73 -30 -29 -26 13 11 -16 -83 29 -8 58 -30 28 -147 -33 -14 -35 2 -4 1 -28 -19 -26 -235 -81 7 69 -61 3 34 -34 10 5 -59 25 -6 59 -10 -14 54 -31 22 -287 -15 20 33 -9 -10 -12 -2 -31 -6 -24 -6 -19 9 -25 18 -13 -5 -27 -27 -65 40 -39 -267 -74 -89 2 -16 22 -18 -125 -23 -31 11 -9 -33 26 61 -153 -65 29 18 -19 27 17 34 -35 -42 -18 9 -25 -32 -35 7 -20 12 -32 -16 -16 -3 -19 0 8 -13 22 18 35 29 14 35 -1 -25 14 17 27 9 -1 36 -17 17 -23 -36
-18 35 13 4 23 0 -24 2 -8070 203 -15317 -9426 -8806 -25921 -421 -49262 14605 -17408 -646 -23788 15096 6630 -14847 -7934 5028 2890 -2642 4233 8823 -9007 1809 1614 -8893 -7864 3335 3059 5268 2811 802 3944 -663 5312 632 6731 12433 9091 -1455 6862 3723 11612 -1238 4712 9156 8744 -1265 9487 -33 -21 22 -35 34 33 -11 -32 -6768 4345 8920 -8385 -10000 23061 298 3486 -15993 26244 -16866 -5128 1441 18737 -12515 -11991 -19855 21216 -15531 14524 -43521 -15563 -17501 -17597 -7453 -35742 14687 -19544 18490 -175 -7310 16931 -2484 -7708 3426 -1527 -2581 -10289 4434 1134 5988 17791 8776 -10019 4322 -815 1507 3166 4231 591 -1194 3910 917 8385 -7494 5257 16913 5363 -1409 20697 -5055 -12146 5429 1893 32082 -760 -15490 -6340 -24653 21022 -11717 -1216 17203 425 25231 18448 24539 -9158 13048 -6723 15827 6382 -7265 -12359 24624 -1656 634 8473 5677 10389 -393 5442 -5088 1365 332 -14149 -5125 -16323 14654 -3048 -1959 2282 -4148 24280 -964 6731 -5198 -7824 4764 -6221 -1327 -7033 240 10927 3968 10189 7864 -5564 1978 13299 4860 15830 4563 13944 -2046 7194 14516 -7629 -1972 15559 1355 23670 -13325 -17845 16109 -16440 276 -29196 -36250 7248 -11710 41337 25992 6923 30484 8642 793 -4136 13278 -13001 -1117 -8058 21809 -34498 14573 2032 -15684 -4835 13327 -18392 -2637 -9119 6850 -31001 -8320 27625 -4100 -11305 4689 10798 17823 13677 2025 -4871 2235 -10 9191 6024 -2236 23220 -7502 13061 8115 12185 3984 5673 2643 -3794 1236 -1137 -1506 -849 21023 -15976 1421 -971 -66630 8329 14678 -5274 -6930 2858 747 4139 -33956 31355 -4535 34303 6951 20782 6172 12655 19129 -191 -4171 -3279 28719 -9357 -3200 19511 -29821 13417 -8457 -49645 20835 -24858 7998 -11081 -10268 21556 5209 18807 10068 26043 -18913 11442 1490 -18757 -12519 5901 2441 19843 -4147 23309 -30841 -9220 464 47134 1365 1880 17333 17537 -9465 14916 9378 -2316 -13220 6 -16 -346 30 8566 -4047 -1189 -1698 -20063 1930 8157 -2192 9378 -1315 -1298 10754 -14269 4440 -922 -25086 -21696 -476 7311 15070 -13758 22807 7347 -5362 -32133 7509 13796 -15943 30441 -10978 15110 17879 -5377 15668 -42947 15304 8400 -10654 -3036 13058 1267 -7527 2942 10871 -13805 2381 1996 -2372 7428 5393 -579 -22447 6026 -5401 -1747 7696 871 -7922 1723 -2 9 3 -13 21 7 18 -26 -1205 -5079 -9768 -2248 3511 -4404 570 115 15201 -8356 -1768 -5755 -286 1404 7978 4271 6816 -12198 8897 -5874 1307 2005 -5429 -1657 -14278 4185 -15147 -2284 18091 -10131 6773 1729 -5694 16160 -38768 29586 -15045 -4323 -20597 2393 -4503 -11786 -2192 5482 -8600 -25327 2177 -45435 14 15 14 35 0 13 34 -33 -8130 -10814 -14845 4281 2330 -531 -6114 -39775 -1360 -23991 -14720 -10584 -4738 1623 -12889 -14481 -7743 -8625 -11642 -928 4156 4331 -16893 -12100 -15370 1366 -22971 10052 1310 -10512 -4588 -12152 -4824 4244 14115 16605 1122 3261 -9880 -698 8313 7990 -6720 9733 -14943 7946 14577 -34404 15132 -7470 4494 4675 -2578 -19692 9661 -1449 7656 -2549 -13502 7666 4020 -21874 16004 -11842 -3698 8631 -3302 3293 3456 -10268 3800 -15384 -13628 -4216 -30022 829 -15096 2516 -589 -14917 -9270 -20552 -3039 -16359 -13051 6172 8309 -4491 11963 -9426 -6943 3364 4057 375 -13190 5535 -16876 -11290 2580 -12832 -4373 1727 380 -20711 -8199 -4515 -10957 4222 -25004 11964 -21089 8385 196 16355 -10518 1399 -1691 14822 10872 -14997 -19943 -25778 8585 -2510 -16139 -14184 -30308 10510 -11204 -21121 -11158 -7139 -7584 -8860 -8073 -4579 -15289 -10193 -19075 -1471 17989 -14812 -8169 -12570 -6288 5936 -8405 -4471 8696 -11800 -8863 6537 -27398 -48129 -31327 -5465 4322 1520 8626 225 -4560 -19840 25903 -9276 13189 3622 -31553 -23050 -34708 -14952 -9132 -21842 -22705 26669 5514 1947 -33439 -8135 25335 24027 19188 8354 -2878 -4531 176 -46164 -34444 24850 38060 43261 1321 -40419 -24033 -7024 -9862 -12463 -30158 -23555 -5029 -8127 -35461 -11152 -40160 4379 -28365 8505 -6131 -23041 -31414 -9805 -1394 -12042 -24852 -11686 -17993 -23504 -27774 -12892 -27091 -13854 -16014 -4285 -1056 -35226 8043 -36544 21739 -4310 2420 -12603 -36295 -29208 -13934 -24119 -6992 -5249 18747 -4164 -15681 -3269 20500 -6691 -10470 11987 14268 21118 -4503 -40862 -21779 -19443 -28011 -67962 -12972 -25288 -1242 -16011 -12746 -14138 -10402 13962 649 5374 4514 -17533 15791 -8540 8420 743 3370 -330 10181 9658 9105 15607 -4559 -1205 -6112 -8013 -3508 -906 4083 50916 3028 -5585 -13509 -11352 8158 7206 11490 29382 -16616 -26699 14881 31619 25437 -1973 15335 7594 -1454 2463 490 -14074 18552 21272 -25 -3289 1891 -6505 -1474 -5373 -8541 13637 -6974 -10 11131 -17 -3975 156 -29 -2355
12 32 -33 31 12 -21 2 -18 -43514 -22863 -6727 -17022 18147 251 -19605 -45689 -537 -33 -26086 8879 -17139 9888 -15029 4823 13529 -11850 1437 7723 4400 -1570 -16986 -15714 -3894 -7526 -486 -3517 1230 1485 7361 1448 2764 -2103 2773 -4929 3241 -1736 428 -747 -2527 1923 -4743 -8414 -3196 5291 6210 6322 -14 34 -13 -15 4 10 -8 22 2972 -37573 13458 2407 16506 14941 -3973 5084 -1264 -28412 -15370 -31784 -10678 2184 -18545 5786 14016 -17633 -47564 17038 -7276 -14053 8238 -6705 -4833 -3578 2152 -12968 -6841 2310 -16332 -6683 -11446 -9690 -12517 15080 -18550 -4209 -2413 -8169 1656 5325 -5161 -5126 -11047 -6467 -22384 146 7520 -8055 1562 -5993 -12414 -5116 -7874 -12429 -15566 -7196 -8985 -18380 -7627 -12712 -10076 10373 7032 5036 -4428 -29313 2876 -6769 -29533 -14510 -4328 -8597 -7771 -8948 -1492 2825 -15577 -8079 -7327 -6207 -27422 3600 612 864 13057 -20057 11504 -7160 -10931 -32907 13933 431 -30306 18278 -29880 -3611 -14145 -18395 -20492 -11871 11023 -16359 -9235 -10419 -23142 -9149 -6281 -4139 -12903 -206 -15368 -5159 -21457 -8706 -11701 -10903 -9657 -17477 -3211 -43724 -6536 -16125 -24123 -5783 -284 -22904 8726 -18833 -11442 -19905 -26851 13994 -22193 -9047 12713 -9727 -41551 25320 -43721 26493 13602 -13476 17773 -8697 -6506 11937 -16359 24881 9657 -10959 -3431 -21909 -6159 -12274 8916 -6962 -15408 -17380 3217 1164 2688 2067 -1037 3036 -12325 -12142 3906 -6050 14786 2874 9088 -7279 -9580 -10965 -9908 16787 -39130 -19162 -3651 16729 -8254 -10440 -2904 -5326 3980 -22382 -840 -6695 -4008 -8075 8972 6904 -32471 -24377 6610 -1106 -1880 -40068 -24131 2984 -18436 -48181 -14794 19770 -4027 -40977 -16181 -262 -52765 -12579 -5268 -5701 18677 -12093 -16590 -25058 8048 -28720 1766 -19229 -32305 593 -19683 9479 -35064 -20194 -22210 -44709 -25948 -46635 -38492 -8707 -23625 -14238 -21711 -13703 -24055 -27477 -21385 -13702 -42873 1459 -19331 -23294 -7711 -20613 -27923 -14415 -9996 -19971 -20341 -9669 -18322 -8319 3987 13 856 -1966 27 -221 217 -297 2327 -9637 7048 -2881 -11259 -18382 7753 -1939 568 -12177 -6389 -10899 -2226 12481 -1013 17146 12935 52652 6115 -26899 -17207 14055 11293 38392 -32763 -393 -13975 -24466 -6754 -24517 -532 -6969 -10225 4013 19696 -7859 -32790 6199 -7366 19199 1874 4436 2008 997 1299 -1315 8286 -28277 25048 -2394 15209 7550 1736 11361 -770 6721 -35 -36 -15 -5 15 34 -1 -8 8510 -5633 3395 718 5172 3998 -2505 8321 6812 183 4305 4042 2357 2021 -2591 496 7398 1494 4042 1604 1260 1074 -12249 -2065 12141 8557 3850 710 10324 -16741 3785 -11737 18760 -13599 9516 -14766 15809 5054 -11133 -4172 3482 -751 -23398 -14393 -22791 -7080 11362 -20830 22 36 -32 -36 8 -9 -15 17 6219 -3147 -5042 3330 6922 2401 7041 -18155 -2089 681 -22719 7344 -1410 -8119 -17416 14819 8226 -428 -393 -9873 -22431 5350 13499 4415 13217 -15442 10543 746 1467 -8414 4307 -7176 -15600 -52267 6753 -17818 16479 -10616 -2690 16525 -3687 4173 -5535 -4387 -12505 5938 -15836 3469 4053 31294 -13503 6439 -27641 7787 -1514 -5879 -10134 11734 -4088 9594 -7780 -19075 -7609 -42218 -12893 -1528 6708 2053 12486 6289 79 -3372 14074 525 11939 14117 3340 25985 1517 -36412 17524 24519 -2100 7873 2478 12655 6408 10387 1833 -2288 8107 -7002 -3128 -6009 -1097 -18140 4881 3638 -5657 -15737 16598 -17219 15516 -3778 454 -10111 32477 -6357 -558 9139 3518 -3784 18651 -20314 -34221 5248 8475 -51737 11419 -3411 12961 -2931 21781 -7717 28910 -9865 -7123 12595 5939 14935 11104 10127 -5805 4702 2516 1129 4747 9117 1596 14657 18530 -2917 9584 14184 11100 2113 -3150 18107 -14275 -9187 3772 18811 15288 10699 6364 36948 -26260 8246 2651 -19169 22052 -4121 -679 -32840 16781 -23203 12196 2309 3681 -14658 -8897 592 5789 -15521 18801 -19182 -3050 5051 30634 -15337 22616 4297 20020 2825 2559 9207 2567 -2663 30003 -14400 5044 -3559 -9035 23103 18404 13182 15576 6320 1650 13176 11400 4415 5598 11322 4236 17368 11941 16173 -11413 6010 -5777 2452 8058 7523 7129 18731 18539 -22848 12636 -4137 2886 8269 124 -25629 -19912 -1951 9149 6933 21307 -20835 -15279 24933 -8652 -37858 -18808 11625 -1874 4235 -4001 -17405 -21473 -4658 -49838 12699 32926 291 -16365 12009 -13673 17511 -25484 -56017 -11895 5278 31663 9238 -3856 2009 -18166 -1949 2903 15768 -9664 594 8427 298 -12643 -8923 11249 11163 6593 6608 6935 13189 -2769 4444 -4991 11446 16881 24344 -46919 318 -22682 -17422 -12449 -26118 -3521 7051 35636 11804 17262 -43038 -21773 28208 -20837 -2996 -13703 26309 -14438 -10243 -3285 -657 17307 -30790 -1324 6892 -9563 1872 -8767 -12093 3065 -16403 -1808 -1956 -5696 -18 1020 -3017 27 337
6 -8 -11 10 23 -19 -35 -23 -9468 3889 -2253 5173 -14855 2978 -15336 13879 3959 9233 5425 -21166 15590 -3274 -4983 13177 -2512 5314 7314 -2900 -7207 -8100 8316 -1095 544 4549 -4119 -4829 -11860 1887 -5837 -6989 4062 -1389 2776 -21996 -3812 -2261 -4344 4116 8753 -201 -1505 -9070 1302 -9963 -14238 -2111 27 22 27 9 31 -10 -9 28 -8581 -3463 -20186 669 6804 -27571 -15977 -72 999 -4425 16434 23703 -2073 2454 -9811 -3011 6208 30 1113 1155 -40285 12747 11717 -6219 14966 6071 15691 -18693 9877 5150 -12084 27340 -6506 23578 -8469 5903 8805 15294 23093 6814 6510 -20645 -313 -44986 13031 184 -7793 7229 4458 -27911 -1970 2337 1335 -12370 -11264 -6706 16099 -8355 -6799 -18952 858 -13355 -9862 -6714 -25161 -16252 15322 6816 -6744 -2246 -13448 3665 -40212 -13724 -283 1318 -10791 7163 -7868 -8337 24782 8717 -16606 -1877 21962 10450 5931 2117 -296 -40358 8937 -223 -48035 17022 -7098 -4231 -10203 7321 553 6891 -20580 -19829 -14277 -27791 -1961 -9719 2147 -3808 -1223 5433 -6089 -15858 10729 4318 -6801 -25678 9687 -2047 -1072 -23971 -15984 -24865 3224 -30666 1834 -2091 -23878 -3511 -7519 16141 -6153 -16930 14986 7438 -15695 -5592 10614 -2603 -8860 -20728 14051 -9593 -12221 7604 -6891 -4024 -9680 -17854 16081 810 -4798 17063 -7477 -618 -4895 -30050 -1706 -2979 5213 -9873 -3282 -19471 -255 15773 8575 -10667 -7528 -4489 -5181 -1707 -6219 -14272 7666 -3422 6270 -10190 10184 1772 -4298 11300 -8237 9604 2733 -20576 2258 3096 8587 13133 16641 8471 7331 -9088 20448 -10166 25092 7507 -37 11923 8497 33044 17853 -13089 9433 16622 6255 14219 33085 6530 17805 -23565 -20917 2273 -1679 6930 5851 11745 -580 9056 23847 14013 -2448 -4261 16494 -9820 18299 14676 15847 19297 -30316 -19528 8787 8022 -12654 5206 -2730 7140 24841 19175 19694 27505 -18624 -2689 4476 24254 24144 14785 6496 -10899 19253 20130 -16942 3282 22058 16358 -22336 4561 -919 11 -1295 -1282 -2 2099 45 979 372 -2781 1475 717 885 1432 -2887 242 -1645 1225 1782 3396 -6263 20828 1628 -14550 16406 -4019 -18679 -20153 -14528 -717 13115 -15410 -4049 -24287 -232 -1111 -9779 -40283 -1573 7817 -2518 116 1195 -10370 -8541 1903 4778 -26708 812 -7010 -182 6729 3081 -5102 -3124 -15443 14193 -31674 9722 1499 -9825 -6295 -1480 -4681 28 6 15 12 36 13 22 28 8 -798 -2972 3194 -7188 736 3032 1532 -753 6072 3468 -5478 -5920 1527 -7256 -8237 -8885 5317 -8403 -1709 -2284 -3198 -18289 497 -2512 -6288 -9482 -5102 930 -5578 -3132 -9344 -27677 -7292 -10480 -21628 2914 2289 -41333 -10805 -24238 -5563 4447 15056 5823 -14853 -21478 -10095 26 -20 20 23 20 2 31 28 11031 6795 -17297 8442 -35993 2539 -10732 -7356 335 -5820 -19590 -2608 5233 -2404 -7345 2434 1036 -36573 6238 -3418 -32051 7545 -1666 2443 -8624 -23331 13371 -6763 -4588 -7290 -1587 8885 2582 2839 -1703 -41671 -8308 8688 -11127 -3704 2900 -20084 2589 19 12702 -2119 479 1304 25416 4758 -3500 -17939 -26550 -26584 17497 -585 5546 -7327 -22656 -35823 -25998 3044 -27910 -34621 -654 4743 -5709 -6672 -16700 2451 -5091 5946 -6056 2057 -14577 943 -13492 -10693 702 -17388 -11008 -9250 -20184 -11577 11612 -11492 -9487 -852 -2618 13072 -8593 -25069 -8681 -2655 6186 9958 -46587 -9843 4396 18700 -17170 2017 1909 -2749 -6186 7207 8675 -35523 14461 -10910 -3401 -21514 -33668 -13744 1342 5568 7598 -21210 -19524 -1136 3135 5344 -4761 10580 -10408 868 -195 -9686 -89 -13155 2190 -7660 -2646 10108 -1529 -4856 2393 -2974 1476 7643 -1766 -18996 -6026 3999 -18129 -5111 -2163 674 -15934 -3835 -20402 3926 13046 -36627 16460 -12385 -15168 3028 644 -3704 2931 -26508 7364 -37889 -28059 -6136 7269 5377 -32957 -5398 -34848 19440 30708 -17027 -5652 -18001 -27403 5224 -3161 2580 -9007 -18397 241 -12609 -14464 2775 1399 21582 -24185 -40442 -13483 -24287 -14708 -10734 749 -19719 -28366 -5274 -1408 20047 1326 -18454 -25632 -1815 -13415 -24636 -13489 10380 -7270 -25917 5300 -17160 -38024 0 11880 -21583 -7494 9859 4416 -5975 19716 -21561 6813 -18660 7532 -495 6819 13126 -6330 4655 15226 -23002 6408 -8182 -3307 4594 24118 4757 -2965 2437 -7457 -3463 -15632 18355 -2576 -4594 11861 399 19434 -24055 -11724 21123 -13193 9637 -25874 -23769 -9892 -3510 318 3258 -3431 -18558 -7725 -17775 -17339 5424 -1484 1079 -1688 -2725 2293 -40234 -6818 10445 3525 -6521 3539 9313 -39978 -19317 -4969 -779 -33633 -5189 -17843 -38311 -2872 34901 -6653 12307 16972 10708 -2449 -7128 14488 10083 -4092 3347 -3228 -181 -5998 -4482 -6714 -10632 25 -5 7248 -1631 -733 -3671 233 849 -2032 21 1975 -36 -2046 786 -1669 -1139
24 9 26 -13 4 27 16 -2 -22 5 97 0 -14 -24 27 16 -88 1 -355 -25 -78 48 -252 180 -86 23 -115 -104 -272 -28 29 -44 -304 -86 -2 -230 -197 -195 -113 -194 -239 -183 -145 -221 -321 -87 -23 -188 -301 -112 -14 -67 -117 -19 -168 -109 4 -36 10 -11 -26 -33 -35 24 -35 -78 12 -31 1 -52 -30 -3 0 -13 -170 -21 18 -14 -329 13 49 -21 -24 -33 -34 219 -170 -42 -33 -130 17 45 69 -10 -58 7 -38 27 -173 -46 36 40 -59 66 -49 19 -59 93 122 -258 -28 20 -57 18 88 48 51 11 2 46 -95 -143 -22 -22 -206 -151 -170 83 23 -348 85 19 34 3 -5 -5 -15 -28 -71 197 -170 -58 -99 -26 -65 -21 -7 17 -16 -35 -157 -74 -56 -148 132 -118 -145 164 55 -67 36 34 91 -64 -88 49 -30 36 -14 33 -53 -121 58 -19 -3 -381 -23 6 10 -81 162 -7 -118 -12 -18 -5 -181 -6 85 -222 -25 19 -2 -22 1 -31 -19 -10 -30 24 9 -35 34 -29 -17 33 14 15 24 26 -6 -129 -34 24 129 10 -208 9 -58 -30 -6 1 1 23 -70 16 34 26 -17 -12 -174 107 -79 -55 7 -9 -58 -22 -308 -188 -58 -165 183 33 13 -11 -110 -39 -118 -360 42 -155 81 -133 -175 -252 86 91 -67 3 -28 34 28 -68 29 -19 -36 -11 -36 -31 -28 18 -131 -16 26 20 22 -1 29 7 -19 22 45 -89 89 -62 -21 -172 15 72 -214 -186 -42 33 -85 34 -87 25 3 -38 -92 -78 -55 139 -17 -26 -109 -76 -74 -50 -24 32 -62 -30 -36 36 57 -40 -52 -8 2 -9 -31 -5 -36 -32 17 20 36 -6 2 -34 -23 -8 0 -9 7 20 -22 15 4 -24 2 20 -13 35 3 6 -17 -10 -8 30 28 -6 25 -107 -15 87 22 -8 13 6 -29 -62 -62 78 70 -24 3 -43 -217 -353 -297 -58 -160 -351 96 28 -126 -182 -42 -102 37 130 -30 28 -12 -33 33 -3 23 -13 -83 66 -257 -203 -119 -79 -96 -60 -255 -69 -28 -196 -161 -64 -51 -167 -134 -80 -120 -310 -141 -193 -192 -60 15 -234 -16 64 -58 -63 -268 -58 -271 -203 16 -95 -6 -25 113 -159 -24 0 65 33 -145 -28 23 -35 1 31 -25 18 -27 24 -11 -36 -36 -83 26 73 -424 -63 -256 4 -175 17 120 -75 -75 49 -238 -81 9 -81 -59 78 43 -171 -57 -159 -91 36 20 33 -73 -82 -39 67 -150 -137 -66 -88 -87 -25 210 172 -37 -27 8 32 -4 28 -34 27 -225 34 -283 -75 0 -346 -36 -80 -15 -33 -30 -7 -14 -2 -21 -16 -121 153 -73 -333 -19 -141 -29 44 -25 -261 -4 -58 -32 -341 -31 35 -52 -1 -50 299 -97 133 75 -60 82 72 -2 -30 63 64 52 82 -12 -52 -6 -175 -11 4 -47 -94 -35 -98 -61 43 32 15 -62 -22 36 24 4 -86 -9 -360 21 -29 -22 -76 -34 31 8 192 12 -21 -110 -55 156 -45 -213 -39 -87 -120 19 -220 19 25 180 -39 -87 73 -108 1 -33 24 -28 4 -37 -183 -105 65 -25 6 5 -242 161 -32 -56 -251 -26 31 -4 15 233 28 17 10 -27 13 -30 -8 -22 -275 4 -33 -102 91 30 -35 1 -205 -32 31 -16 -11 -139 11 33 36 -28 -151 -193 -57 111 -65 0 27 -55 92 -88 -57 -27 -99 -36 28 36 -34 -6 -15 134 -52 169 -33 126 -51 48 29 -87 -35 -65 -48 4 -22 -65 -16 29 -87 11 16 47 -18 -69 -17 84 -14 -33 -29 -71 -15 -8 9 16 -23 -17 -31 -32 -34 -8 36 -9 25 6 -17 -18 -51 -79 -77 -132 -121 -126 -60 1 -35 -72 -214 -47 -288 -75 -98 19 91 0 11 18 21 21 -43 23 23 -1 -15 13 -26 -5 22 15 -17 23 156 -23 -316 -17 -10 7 36 26 -6 -10 9 -10 -35 14 -11 31 -24 21 -16 -34 -32 -9 -35 -26 -23 36 -14 23 24
-12 -31 -23 -17 29 -29 23 22 -4345 -8788 -12503 24832 4465 -29611 20381 -11172 6267 -11720 6234 -10200 13557 -14713 16399 14666 -6073 -1504 13649 -34681 -521 -4327 -13060 8313 9922 -6807 9051 2213 3776 -3409 -7614 5118 7364 5084 416 -1491 -4583 -1420 -11130 5041 1822 88 -49 12173 -354 -11951 -2577 3160 -20 -35 8 -12 30 -5 31 -5 12746 9324 6294 -23965 7347 19587 6702 10808 -19449 23260 -16982 -6631 -5389 -17426 -10721 -7626 -15642 -4527 -5061 13660 -22023 766 -12236 1755 212 -6375 6696 -12379 -3233 -39137 -19289 -9126 -8721 -14126 -11473 3368 99 -14610 -3145 -2324 -8578 -15018 -6653 12525 -33179 -9876 -14305 -15037 -16551 16128 -1195 3733 -33284 -11727 -11193 -826 -16992 -1792 6056 13922 10983 -1721 -10000 7831 -35611 16686 23802 -26881 370 -26989 14453 2478 -511 -12203 -17325 2254 -6383 -17205 12793 -9324 4447 -4401 18520 2584 653 -41765 18587 -4012 -1776 5270 -3728 -5020 -2913 -10501 -29631 -4310 -13040 -16544 -6972 -1315 -3410 -3972 4417 -14797 -17044 -233 8274 10862 -9307 -2770 12215 8732 -8010 -14153 5711 -8109 -12102 -16994 -5726 26952 5602 15867 -4911 -11527 -4656 -433 -7058 10260 -26100 -7667 -24775 4677 -34859 14900 14665 27685 -60258 9865 -14852 -19932 21838 -4554 3078 -11285 8502 -14597 -29628 15284 -20548 18226 -3893 8263 -1351 6662 -24330 18484 -8051 -12966 4944 -5195 -26557 -15518 -26982 29272 -2766 3559 -2457 12168 4227 971 8039 -20648 4280 -14329 4775 9776 1928 -3827 -8832 13121 -15837 -17809 -7132 -14170 -176 -274 8040 10744 -8610 -4354 -3586 -5940 16055 -75738 -24157 19659 -9047 -19844 20473 5305 1403 -38121 -27836 -19925 11924 -47948 9173 5284 11117 11628 1223 1428 -8433 19694 21746 998 21223 -8788 4575 -15367 3896 -35549 -914 -8722 -29370 -12981 -22407 78 6308 6356 -4926 -582 -4932 -16935 -4673 -26678 7056 -2623 6360 -3651 -15004 -49808 -8617 -4976 -18542 -28032 -13010 -30829 -22623 -3743 111 -12446 -16406 -4735 -44290 -17760 2131 -33 1877 26 -10 78 -90 284 2526 9835 9462 2725 -12636 10295 7356 5090 -2254 13930 -8034 6229 -10239 -6274 -888 29987 16691 -29046 -21803 -25243 31768 -19665 7549 9743 23870 27274 10441 13183 4717 4224 -2988 3130 -21416 -18757 -20437 -10156 6639 26918 11193 2573 -25363 -22371 -9588 3463 -6879 4655 3572 -6677 -15999 -9154 -27769 -21304 6086 -4797 5691 14332 -2 -33 34 20 -5 -26 -31 -6 2739 9585 3346 3432 -833 3451 -3786 8071 574 10497 -1933 4920 -4515 -9508 -12886 1441 -5723 -19497 6253 -7185 3826 6867 -733 2115 -6097 5831 -5719 5691 -521 619 2935 3153 -6935 -3346 6133 -6356 -20248 -12185 -14018 1351 2595 11057 -5824 40596 -8721 -24563 1658 27968 -15 35 -34 29 10 15 25 31 -14631 2490 -10201 -9087 -13393 5918 7667 -6619 15735 2840 33 7053 -721 5590 -11613 9856 -2601 -24185 18896 2933 63 1076 -546 -2614 1706 -18567 -8367 -9711 -1624 4617 5975 7501 59 895 5226 9310 18452 639 -5968 9692 -3504 17659 -2385 -16267 -6946 -14138 980 36 -979 4549 5018 15974 -6126 -33072 6009 -2032 -15757 -25405 10209 -19470 5910 -14693 -33788 29635 -8027 9278 -542 261 7737 1620 1650 26978 -11202 8587 -22556 -3346 1165 7551 3893 3845 7284 3782 18296 1901 11480 10685 -5092 3348 -16310 -38865 1754 -15411 16805 -4992 3229 4696 -14154 19864 107 24307 17982 25970 -9898 18187 1727 -2320 9297 -18501 9834 -18477 -22726 13712 19530 4171 -758 -18170 14333 -16131 -395 24261 -3213 5118 22518 2545 20556 9518 13242 -2042 1324 -2099 -15317 -991 5751 13127 16807 -2349 -1467 -3555 -31353 3424 -2203 -10117 20732 -297 -1037 -15214 -1577 -19426 -1305 419 -3363 10805 -3426 -35007 -15484 26653 -41685 -10071 34192 -12440 -18589 -15313 24989 23434 -33691 -697 31444 16174 -13870 -1721 -26887 -39371 -9589 -18477 13202 14105 -19422 28579 1387 3833 -2696 -12702 -9924 26945 -21831 -1603 11583 -38061 18626 -16605 -1789 32314 -14191 8469 -40 19018 9112 18877 27131 11008 22492 -6608 17662 -10475 28049 -26800 12904 10035 -16355 23135 10531 15475 39207 5400 19210 22543 7242 -50467 -7903 18418 -15224 3386 13972 21903 1765 -23246 4764 35516 11636 13582 19102 16397 -258 14121 -7720 -27024 -42291 -23218 9734 -25231 -6665 28154 30925 385 15561 -25978 -8299 -22269 -18122 28816 42574 20511 -733 -17403 -11764 18325 30518 8306 4899 778 -685 10326 -7093 16998 -10374 -15874 3268 6521 131 -3052 4805 -17330 -25343 5920 -6419 -12846 -7933 536 -7726 6015 12306 -37479 21487 -12751 1474 2224 10284 9036 6290 21177 1175 -5617 -31077 42683 20088 -21042 -15521 4051 -14213 5876 16449 -18571 30291 26588 -4333 -4629 2143 -646 4979 1708 -11611 6513 8957 -2276 -2976 -24 11715 -3047 -629 -570
0 -6 34 4 -15 -6 -23 22 18871 -14374 26874 11676 -7407 -6916 63 24025 1046 19981 -25887 2267 -12340 15629 6833 -11130 2972 -34813 -11942 -2035 9088 142 4937 -187 -713 -25743 3816 -13052 -5639 -500 1833 -3174 -4624 3366 -4962 -987 -7372 -3413 -262 8092 7062 808 4722 -2873 -1092 3276 6586 1468 1 -25 17 29 5 5 3 -4 -15111 -13345 16780 -2548 640 -22687 19308 16065 1811 20758 32947 -15510 -4296 -24932 6116 9449 -57952 2453 17420 4556 3071 -16449 13930 -560 -17303 12945 -30255 2825 1074 19426 -14013 -3521 -7188 -14665 -15581 -1970 6478 17193 28456 -3948 5926 -21831 9282 12109 9886 -1076 12877 1164 3054 2922 7872 6863 4126 7571 12297 -5387 -3104 12276 25313 1879 3473 13048 8039 13873 32524 23851 -2215 -11176 -4606 -9367 -26015 -1817 -23273 -8365 13473 -22627 -3411 -27844 11885 -5069 6776 3966 -39696 2410 -5633 8383 11557 -6046 -4196 1942 11957 20459 26344 -6231 12927 3342 -21450 -24447 -14099 2373 7969 -1693 -4207 -8115 2408 -19967 -7051 9082 -6081 5428 2339 8971 7603 12377 16583 -7587 6221 -4386 12505 7026 15794 23809 12350 3701 15032 3648 6565 13757 11228 27117 -28794 -797 -11501 3693 -21864 5191 -29809 43765 14313 -2313 -43504 1483 13990 -6168 -35433 -38634 658 8721 -47784 20102 12617 9165 -29355 25966 8850 -10943 -13175 10363 30101 -21720 -14766 -26270 11650 -33725 929 18288 -835 -643 -2317 -15976 5571 -12630 13367 -29522 2247 -829 -392 -6766 -12339 14565 24846 10094 9690 5362 1735 -6327 -3358 -4146 7732 14349 3508 6148 9482 35742 13553 16850 23744 -58443 18414 27358 6168 -3289 45659 -19885 9745 -80277 -28243 4782 31022 17299 -70047 1300 -5108 5936 38536 -14810 5472 2233 -5564 20687 28412 14069 20416 27899 6326 -25815 13448 22108 4941 4931 3509 20286 -9882 21956 -24077 21239 20614 13744 31420 2335 -16926 1387 21031 7043 20011 20828 38678 33888 -1168 -23573 3539 9439 2240 19489 26037 10766 444 24 -361 -323 -36 8062 -5124 661 8 2647 4114 2926 4699 -2055 -468 3599 -5586 -2852 -12146 -3639 -20813 23341 -406 -12355 -46896 -18105 -55547 -34373 -17469 2668 -22499 7190 5536 -23866 -24781 -1520 19387 -7684 -67214 8560 19940 -6184 -1556 -11291 -3331 -8167 -6443 -25097 -24811 -2764 12170 9145 -703 -2170 -16175 8883 45706 -30 -1983 10243 1067 746 4821 -902 -32 21 -11 3 -17 -23 5 27 1327 8561 -1492 3214 -5162 -9001 -1289 -1300 268 8512 -8964 1591 -9950 -5367 -732 1454 16799 11870 5815 5129 -4953 -9299 -7077 2405 2338 -812 -7736 2390 -5508 82 12732 -2402 287 -4147 5390 -8675 25480 -13714 -21029 -20374 17155 -23756 -11225 22060 -4011 -10841 -34332 10691 10 15 9 -33 -30 30 -22 -26 -34155 4054 12841 6863 -14151 -21709 -6495 18994 129 5628 -1443 -14626 -15808 -3457 -4202 2946 -10288 -3981 -15324 12426 -1506 -11786 -9734 -5252 -20432 -1648 -13632 5569 1230 -7820 10853 -11767 7697 -12483 -8191 -4332 3209 2313 -1415 -18793 1349 6424 1669 -19669 -10628 671 -9461 23772 -1596 32478 10430 -6954 -4700 17762 8261 -2256 -3109 14883 -32532 -7372 7276 -4413 13767 -6740 -8080 8793 2433 -4560 -9101 -6207 -18125 -5163 -174 -6832 -16130 -3481 1027 8189 -7993 -27098 -20720 -27793 -11249 -6095 -4136 2990 -3347 -10631 -6290 -1020 -9573 10154 -4678 -8020 -31110 -6061 -21947 -3351 -412 -17690 7217 -8502 1048 -32888 -1325 -11607 -4398 1010 6694 22046 -16893 -1764 19517 -1252 -7039 -6109 1828 1621 6512 14812 -24034 -19082 -3197 -7054 -764 -7222 -5035 -9522 -9546 2619 935 -8007 -7682 -15287 -2169 -6572 -5422 -765 3755 -15285 3068 -2309 -10827 2807 -9912 -8134 -24139 21826 -20072 8116 -7147 343 -18881 13732 14980 2198 -35364 26057 -584 102 623 -40545 -25878 -13884 -702 -13664 -11605 7708 -1996 -1977 8419 26277 -44683 -40371 4089 -3596 -1877 8302 10024 -44031 -17625 -1675 16439 17955 27781 5160 -7919 -13589 14163 8319 -34705 20196 -5279 -412 -5597 -4369 3411 -16597 -3300 -23711 6187 -28659 -5724 -27724 18537 -17325 -13544 11988 -36357 -12442 -28876 -2117 -178 3569 -19056 -8813 -41887 -3500 -54366 -15595 -1438 -7120 -5690 -27881 -8844 -26348 -23302 -8003 -5702 -22962 4384 -7632 -6686 5508 4797 6024 -13263 5214 -8600 -7890 -39041 15353 -22751 -12508 20004 -35782 10860 2524 -48553 -31875 -8814 10937 -20420 -38914 6511 -36986 -4856 -33471 -11815 -10640 1356 6435 15918 -9876 -694 3011 -253 -996 2029 32 -10071 17898 2970 2393 -4615 1623 3137 18227 4450 -14575 546 16006 -23618 3236 495 -28872 1131 -24301 -28367 -34777 25392 25613 -29306 -23674 1981 -42662 -31325 3811 23768 -5927 -5473 -25238 -35134 9449 -24 -5998 14727 16 -12429 12061 -641 7636 777 -24 8486 -6 -27 167 319 6399
34 -17 -31 3 16 -15 22 -11 -13513 7917 21727 -24277 44803 -8272 37350 -43081 -5269 -2505 -9087 5809 15745 -57274 576 -6924 -7749 -18856 4006 3189 3973 5693 -4665 -6709 -5660 1863 1478 3975 2935 85 -2529 -6264 -3899 8000 4777 -2483 13974 4112 0 -1986 -531 6566 4654 917 663 6707 4868 -3868 20 -11 32 -34 -8 -8 15 4 -13173 -3502 -19247 -29459 13568 17915 13714 4226 -7117 -5 -25559 -8391 -19537 -911 2806 2817 -24981 -6635 -13364 -2423 21424 -72675 -6587 -7401 -3744 24959 10048 12432 3481 -4463 7377 -7960 -4688 -2787 22099 1264 1709 16395 8602 -1264 11117 8944 8388 23885 1615 15389 1358 18950 -229 3853 8566 4048 -3432 4847 574 -17623 -17095 6912 6511 -14231 16614 -38208 8561 27981 -30322 16417 18412 -35156 -38156 26533 15639 -11587 9058 -11069 7524 10045 -53198 -3496 10704 18873 -14048 26980 -12977 -5955 -1588 -25085 -6860 -16270 -14703 4585 -25981 4988 26423 14664 4848 -1268 -14449 215 -6177 21097 -25933 6625 -5451 14101 11648 11235 21859 5290 15593 10896 20702 11035 15718 7677 -372 5406 19912 6146 12810 204 28202 1346 11882 20176 -11382 15140 18636 -15036 11836 13801 -8785 -37174 -27600 -9083 -11572 -3297 13942 -9409 -3658 -5419 -19725 -6399 -41293 12470 -7517 -5742 -953 -50212 -23790 -25111 2247 -2139 10793 14532 1703 9064 -23147 25657 -659 21173 151 -16823 18387 25724 -15772 -6793 -10380 8584 6495 24802 -4325 20773 -1903 16862 -9813 22798 7632 16906 -2316 6913 -5291 5894 18426 -12131 7037 -4405 3321 250 -1594 -3080 -5546 8269 -26288 -43523 3704 -9193 22385 -12000 6998 10602 15664 12571 28454 -8357 -38386 -30219 12847 -9428 9817 545 -56359 38008 -8532 -53509 -23391 13150 -12807 7227 22173 -3073 14453 5164 3096 16907 8117 29474 7863 31084 -17661 40317 22103 18319 17332 16269 31469 18328 -11557 29701 13746 20408 11211 16151 9892 12899 11546 18487 19768 8606 -3970 4729 8937 11644 -2706 7592 16701 -241 -8766 12 -684 0 4 9494 692 272 -26901 -21216 13888 5180 -2297 9938 -8512 -1865 -6668 5047 19355 -450 3369 10226 -8272 -20826 -16017 2703 -37332 9526 24679 -5951 -50402 -35515 -10522 -25252 -19165 -25561 -18079 4943 -29169 -11663 -3189 -3091 -18678 -20734 -15347 -16605 1155 -26798 816 244 -13989 -2148 -3021 1896 -898 -6414 819 13372 5189 -8170 5448 -2982 -5729 10299 -11 -10 30 -13 -7 4 1 32 -3385 715 -4642 -2510 3938 -234 -1369 6724 -5567 1346 -1946 -7072 -845 -11516 -679 3835 -5428 214 -1121 -2822 -12083 -440 -8054 -1654 -1918 -16639 -4852 -8970 -4653 -6458 -26158 8726 13024 13280 -2624 -3396 -6375 19765 11647 -14862 17309 -6805 20370 1902 18625 38472 -70785 5341 -24 32 -12 -20 -17 31 -30 16 -8006 -2739 -40023 -4830 -31246 -15898 -2612 18443 -11463 -21558 -11811 182 4750 -32956 -11148 5518 -11923 -10797 -12550 -1834 -11822 -2658 -9904 -2500 4827 -6033 -2896 -2036 -10203 -8135 -12443 -8732 11235 -3609 6669 -9522 -7193 -5739 6056 -29738 -15310 -12415 14232 3124 5081 10324 -7836 6746 -9361 3558 4228 -524 6885 -2997 -13618 -11340 -17142 -8017 -14723 -3936 12129 7883 -16923 17136 -4040 -17415 -6119 6229 13722 -13898 -14281 4648 -16038 -6166 -23133 -4368 -7887 -1644 -23444 9402 -14705 -8634 4074 -5274 3319 -8024 799 -14000 11823 -7861 2284 16750 12121 -15378 -2640 -14969 12091 -11085 2111 -3020 -5593 5761 -11943 -4029 -6365 -1756 3249 12043 -2343 1739 -10098 3633 -23185 3654 2604 -795 -18061 3015 -1393 5477 -24846 -14656 8459 -768 4135 -2622 -31443 -17539 -2746 1471 6820 -281 -21459 3617 -5528 -2015 4629 614 6832 20 13398 -38693 -2182 -1673 -9230 5490 -16338 17022 7038 -5175 -13790 -5008 -6878 5498 10039 16759 22721 -1990 5413 12783 -15108 9354 12717 1085 6590 338 17084 -14726 -42378 -7209 8924 9253 -3200 12742 -39776 -32178 -4289 -35818 -7362 18957 13574 9259 17959 -33889 -9960 5636 -31811 -32470 -8999 -51175 43802 -19485 -2859 -5067 -4090 -5856 -6055 -2722 9594 6486 5552 -27193 8166 -6362 -16187 -17037 -50523 25404 -17401 2640 -5852 7909 -2291 1381 19989 4341 -7006 -714 -8583 -27733 -2347 -27755 -5466 -13012 -175 -8829 997 27246 -19338 12587 -27674 6947 -7994 15172 14324 12441 21461 11164 -11886 -2197 10616 -8118 -7181 4320 -7688 24019 -7714 19140 4886 -19477 -38336 8499 14817 21928 16858 5215 37554 -18318 -14457 -8098 -6891 -3280 -18190 -3602 -43382 -8355 -11653 -3542 454 -615 -13171 -14121 16210 -60999 -7624 2585 4926 -633 -5719 45362 12347 42252 10943 2821 -2123 -21475 26240 17415 386 3911 -7393 565 28060 -22019 33037 -17545 5036 15976 8925 11212 9039 -5324 12597 22121 30 112 -9414 -31 11753 18211 809 -9305 917 -32 3357 -6 -6862 162 291 1551
-9 13 18 -16 -9 -15 24 21 -20201 -42176 8792 -15655 5729 -37970 -3022 -42174 -1928 -51307 -7282 -9381 -2513 -8145 708 -4974 1093 -2350 -15245 -6990 -1838 -23044 -1942 -1459 -6423 -16855 563 -5777 -9713 -7599 -11261 -41 -692 922 -2869 -3968 -4948 -3677 693 2648 -523 4126 -142 524 -3626 -9051 -5589 -2637 -23 -7 -18 18 -28 -14 20 -19 -17638 -17175 7858 -38488 -20296 -2852 -7966 -45177 -7128 12059 1581 -27542 -2065 -17828 14762 1595 -9923 10644 4321 7550 9784 -11295 -12633 9157 -34767 -3915 -2308 -12208 -28207 -17079 -19852 -34097 -6804 -12274 -610 6055 -3034 -24714 -27967 11956 2470 -104 -8097 15550 -4832 -611 -12728 10862 2036 -6472 -3459 -1348 -3064 -34706 -26178 -24934 10804 -4838 -3907 -5157 -26823 -25610 -5072 -12696 11104 -5421 2307 -16350 2525 7911 -9560 4130 -41270 -3727 -5748 -15916 -16037 -8549 -6677 -5073 6238 607 -15464 975 -230 -10754 -8258 -6094 8993 1784 -16482 -8118 -249 -2479 -4807 6444 3259 -18282 -21739 -15018 7571 223 -10360 -36490 7424 10135 3934 -8471 -10406 1399 -12008 -839 -8058 -2980 -24425 -3678 3562 7275 1275 -25452 -29858 -18721 -12830 -30919 -8727 -10566 -21416 -21292 -31994 -14602 -37264 -30633 -26350 -20862 -7134 -2900 -34971 -11797 -11240 -11452 14009 -7488 -16955 -31820 2475 -4309 14290 -3045 -5860 -6950 -3993 -34297 3043 20829 -23787 8954 -16241 -1547 701 -42947 3069 -15257 -4056 1816 6458 20787 -5821 -33910 -3843 -12880 -14547 -25153 -21963 -6241 -13142 -2561 7103 -40653 13994 -133 572 -10132 -212 -44 8940 -4970 4304 -16490 -12622 -3551 -3206 -17 -25812 10924 20496 12179 17299 15047 8503 -49272 13278 10208 17271 6619 -29727 -13054 14525 -535 907 -14168 -2864 12610 -7863 -12009 9691 5577 16959 -10680 -20137 -11030 7885 -1064 -22862 19690 1364 3160 7193 -61100 -30638 -4688 7763 -16926 -7864 -21131 -12833 7105 -14148 15845 -24499 -7039 -9403 -16382 -10971 3391 -4182 6832 -8180 -42140 -21069 -4181 -7208 -11324 -51888 -35344 464 -2403 -214 8 961 661 -20 305 -62 -620 832 -3859 13488 -1376 -2137 -1628 593 -2743 5378 -2456 -4880 4293 -4929 -1507 5503 8524 -1613 -18778 -20746 -10002 -19190 -14723 4199 13350 7747 19087 20185 -26572 -19616 -18194 -10822 -3158 -10967 -25072 -27197 -8882 8816 -2899 -16992 -35019 4791 -3899 3067 1167 5810 2327 8116 -3964 10055 -12673 -5781 -10054 -9071 -862 -4247 -6452 17 -32 21 -19 7 32 22 -5 5949 12089 -4977 694 4374 -7285 -8713 -5662 5668 -9031 -13828 -1465 -672 -5788 -2133 -9856 -540 -818 150 -9734 -2278 1527 -3583 -1395 2733 -6049 -3743 439 -4670 6954 8190 5660 15977 14026 822 7382 -2432 -5564 17825 13226 -19286 10861 19346 -31826 23914 -19902 40319 -15565 -20 25 -29 -28 -12 6 -34 10 -11775 -7926 -16882 8831 9519 -12887 4766 -29408 -594 -1557 3404 8208 -1022 -2221 5061 -12537 -1406 7450 -824 -5912 863 -3081 7623 -8760 7918 10811 8750 1778 8117 12294 -8540 -103 13849 13792 -2585 -10141 -23873 -6505 9233 -10638 4768 -16439 18557 2652 19157 7766 -16424 -2598 22604 -2298 -19711 -23278 -12587 18620 -16722 4892 10495 -16374 -2981 -19485 -1204 6319 6641 14450 162 -39086 -1026 -5883 15582 1216 4373 12879 -25349 -4205 7928 -4815 7321 739 16320 2450 8004 5081 14441 -14981 -2182 -15300 4264 3962 -5403 -25942 -14938 -10306 -3705 5410 -15910 -11801 8102 -27639 -7991 6657 9332 13080 -15327 2737 14331 -4167 -19587 -5041 -2361 -17721 -21187 7453 16854 -8178 3433 -14198 2917 20061 -10537 7165 944 885 8046 -31164 -2442 3739 16053 5800 -2324 5492 -606 20691 -3122 15002 11816 -4988 -8598 10107 -26157 -13454 9626 12046 -2964 7050 -9709 5495 11229 305 -25440 -5615 8036 -9974 -3412 -19568 -9051 939 -3495 -9890 10921 -16118 10952 -4781 7574 -15570 -1236 27487 1963 15594 33599 11409 13469 -30895 -27964 -8433 710 -9210 -19932 -16816 -23447 -28639 40083 6227 12896 23442 -6625 26332 5909 4771 -1888 132 -15163 21034 -17024 661 5216 12179 14044 16937 15096 -29092 -1636 30022 22336 12363 14357 24150 26074 10726 30588 10142 2437 14763 -32512 127 10877 8892 29107 16588 7730 34713 -7558 17552 25060 -15420 4903 23589 19814 5816 10083 39320 28642 6849 -18349 -28829 17764 16553 -13393 19118 -7929 830 8317 -25276 19522 -734 26069 32787 29448 29413 32341 15100 -782 10780 12077 38383 27023 21393 904 11696 -25399 -6181 3160 2394 -6346 -5015 -30656 -6039 -1867 -15655 -81 4338 -6167 6868 -23100 -591 -23401 8195 3059 2010 3448 -17500 -46473 -1470 24268 -4326 -33313 2824 -15963 -36068 11271 -6818 -17765 -11376 -3768 -33739 13459 -4542 -3864 -5102 -7022 -2943 -10988 -2932 -8227 -12213 -641 -1169 -2287 2831 -1870 -773 5910 1458 -497 -1611 -1279 -19 2534 -451 -16 -631
-21 -22 9 -2 6 -10 0 14 4401 31592 -1100 8185 -40817 -19361 -42517 13122 -4016 20421 -5556 7228 -2373 3211 7812 15469 4698 -4009 6681 -6481 16417 7672 -103 12589 2002 5247 -619 4320 -5736 323 -1347 1549 4005 1126 -3679 -7322 -4905 -3823 -1058 355 -3103 -5049 -8389 -6445 -4900 3866 -10908 -644 0 -3 13 28 -34 25 -16 36 5323 -16118 21586 12528 -1510 1287 -2887 29788 -7182 11499 -4121 14484 -13029 3534 5356 16917 7725 16630 2877 13617 1715 -10557 24892 -11380 -10701 8006 19645 17705 35864 -23731 -1928 5836 10815 755 9721 -2548 -12482 17488 -5936 16108 -9792 15042 -6550 18782 3593 1675 -17656 2498 266 -3198 -6544 1731 6116 -1700 -6271 8574 -4810 -7612 -6363 -7365 -2569 -3254 -3325 -38867 17498 9180 -23347 -5420 -58440 18243 1744 -2222 -13820 -8074 19510 -26503 -4561 7547 -33881 7070 -2037 14050 2738 4252 16499 -2484 4416 635 25798 -2134 9903 7372 20144 19809 -11824 8696 9826 13819 2460 3919 -8145 11484 -8524 10809 -745 2053 -10059 8500 -5788 11558 9046 6924 -13124 416 20311 7902 -5987 10681 12904 19336 -8886 8185 -3051 -12386 695 -5028 13120 94 -17156 -52068 -7560 23712 -811 11120 22787 -1209 28637 13639 20924 26556 -16427 21237 -11572 31652 19017 -569 -12033 -7868 35384 19032 28711 20737 13049 -43568 14146 23324 3347 41568 3238 -14605 13071 21530 -18717 2389 -14133 13743 2669 -1617 -110 -6614 20595 16018 2160 6322 5823 -7624 -7276 9136 2571 -6910 1131 25407 12605 2434 4760 6048 10842 1079 8693 -2434 7940 -5088 31211 -4656 1509 4663 20574 31778 -3536 37352 8042 21322 22597 2917 -73906 11441 -49446 19486 12917 2802 6552 -20831 5833 -30990 57299 -32416 -1564 13196 29419 26089 34719 11099 12678 1663 12815 7118 266 18742 -24359 23629 -23902 26560 35641 29350 1441 27293 10116 28442 14592 30734 214 12252 39854 19524 30049 17104 17667 26968 22560 12830 15526 14875 7280 11076 6336 14995 -15383 24 -310 -1294 -1 -129 1 297 -1169 -2532 -2178 12632 13657 10274 -2590 1080 -9151 -38573 6985 -18124 -1110 5201 2732 -12440 4162 -1640 -28484 -16481 -14459 -1565 -28335 -6677 24663 -18874 -6248 -52030 4187 -2738 144 -23043 -23110 -25564 5546 -10295 -15693 6825 5121 37585 16639 -2856 9587 -7401 706 1055 -3050 6772 -6416 948 -7469 2830 2907 6711 -2148 3400 10 -16 -23 -20 -36 5 -5 22 3811 1634 3079 2143 7354 -13738 2126 -5331 2603 -5036 -4413 -17445 -7355 -6187 -1832 9607 2817 1243 2159 2295 -9350 7326 -8256 3497 -5289 2444 -14586 8895 -18052 5958 -8206 2952 4146 -6226 -20851 -9386 -23117 -4156 -16464 -26695 5627 -33025 -7034 -6473 16261 -1135 9599 -5998 21 6 34 -5 -17 21 29 31 18444 1414 -668 1251 7740 -12959 5231 -39118 1060 17624 -9451 3644 -4958 -639 -3797 -1620 3605 29622 -5363 -7094 -4045 -2967 11625 549 -5520 1142 3695 -1308 -4266 5015 -11028 -8287 3852 -23206 -26457 -23318 -1196 -16627 -8112 -9348 -406 6600 2364 2713 -18431 -4934 13009 -18459 -6726 7316 15763 -473 8535 15879 5038 -2055 -29625 -8382 16202 22605 -1725 -29772 -25119 -11922 -9451 -7536 3763 1344 -14701 -1515 4436 -19263 5260 -10441 11666 -2046 551 2515 -5436 -28354 -5392 11634 -9963 2184 7483 -4038 2259 -3957 -1516 1894 3913 -7649 3653 1019 -6257 -3885 -15441 -17588 -4384 -12948 -17183 -2027 -1379 -336 -10207 -30931 -10164 -24164 -3592 -29379 -2421 -7404 -18017 -4520 -449 -7715 -5943 -22171 4552 -16532 -11090 -5260 -17490 -51463 -10284 -3270 7966 -8053 7177 -3285 -7442 -9990 -2474 -5193 -3743 -4086 -494 -7458 10784 -25026 -8053 5306 -11270 5151 -8279 -1077 -5844 -945 -207 4572 7618 -15338 18616 15265 12862 -9431 9897 -11986 -25391 -2695 17441 314 10585 7830 -52683 -10504 -31408 3296 -4677 -44821 11624 8038 12817 -16435 -11373 -74905 -7830 -60863 -16088 -73419 4568 17469 -10789 5450 39072 13707 -40509 7188 10650 27700 13689 9730 8554 -2307 8599 7450 -1029 4848 -17365 -8746 12914 500 11657 12575 7997 -13851 4320 7453 -31993 19977 -11135 16848 -3586 -1287 33808 -12405 19619 -19498 -7014 256 13075 -26403 2584 11992 15682 5706 -806 -31047 -34656 1987 -119 23299 9737 -9800 -20915 -6099 -6409 13301 5022 -23006 -15028 -35789 -410 -11595 -648 24155 6611 -43930 26178 10675 -49393 5666 -11935 -31561 -1944 -2137 3618 -35958 -840 -2079 -5852 -267 -11661 -11015 -13955 -11751 9420 -3824 10248 -7003 -6250 -28635 14109 3667 -7182 3176 12101 12876 9282 9178 23175 -19368 -11501 -3730 -14303 29642 9466 8810 -13081 1945 20932 32704 12565 16506 37276 15304 -14152 -17648 -14035 8909 9122 -1595 -12631 20366 4332 6526 -6906 -2213 2437 -9332 11509 -3541 -3857 1224 1475 28 1801 155 341 -1103
26 29 5 -31 -8 -24 -8 24 16700 5978 3688 22668 -24967 13178 -14537 7092 -12014 4548 5170 -2150 -14740 8632 -3504 6811 -4453 1295 -14458 5692 1550 1522 8292 -4315 2189 -9182 -5017 -3174 7279 -10923 -4543 508 -6054 -3521 1935 2703 -6467 -3085 -6043 -7827 -4933 4554 -1922 -2732 -1962 -4453 -3404 2159 17 6 35 -25 7 30 3 -8 -7641 -13198 10069 -5233 -24395 4942 -6804 18483 8994 29287 -22833 -20558 -40070 10681 3019 31373 -8582 8581 708 3798 -10705 -15417 -12272 30938 15688 -11489 -17432 15201 -4785 16093 5790 14875 9321 -11557 34014 -1935 5618 -13852 4717 -2304 7500 10403 10039 -8222 8165 -4767 14462 -5100 10429 6970 -1047 3655 -6737 -17039 2645 9053 -59629 -1184 6231 2891 13029 5121 778 12195 -7220 15055 6096 10195 -28828 7063 8910 -20634 -15162 -7458 6963 -41207 -14095 -15506 21510 -15071 1325 -48662 3994 2263 8440 11056 -26014 18150 -1082 1339 902 30793 -4318 6985 15444 10573 -3572 -7157 20226 -3813 2624 -26904 -8737 -75 -4845 5230 6534 1533 7597 -7138 -44794 8523 16340 -6407 -7848 -6 -6454 -18667 -12536 22008 7801 -27611 -1474 -3992 -20 -5263 -1556 5965 3660 -34861 21601 28589 18942 -13523 9412 9610 -5593 6368 -15459 -163 4262 10986 -7188 -655 -29213 29937 13369 4369 44439 14375 6603 2639 -380 -14303 3670 29937 18647 22456 4997 24882 5884 -8280 12678 8709 -8864 -23368 -20407 4707 2531 2001 9096 15103 -2429 16809 -7114 7380 -11300 -2687 -1678 -10092 -19360 13685 5395 9280 7570 -890 3175 1190 -182 -3729 -2155 -3033 -24149 6910 13879 -36075 -47701 15915 13664 28024 24405 -13538 15284 -43699 -14015 -10941 36077 -4286 17225 901 16623 1319 -4233 -11793 -2462 -674 -32250 10750 -45187 42310 32444 33900 24911 14019 29212 -37327 58968 -55317 -12297 1996 -171 11125 2269 -2631 -9022 -6324 -11111 9747 -9414 22694 7580 -4154 7881 -35 -2459 -2799 -19086 10603 19889 -4681 4019 -3613 4460 -15058 15162 11719 -12575 -32 0 20 32 -345 -28 -1220 -893 3272 -3276 9718 8442 -2008 482 -4343 -12106 14459 9090 6452 16946 45698 12278 28232 18354 -31646 -10822 30863 18578 24238 -4280 10911 1647 3272 -3385 5789 -4264 36168 -9155 -1598 -21259 4384 -1173 6112 8811 -13569 11830 -8386 -7417 3339 9938 9816 4029 4288 -5647 6804 -58985 4487 378 -2512 -2085 -19579 2589 3311 -22 -21 -15 27 6 -5 -9 -17 1740 4551 -2336 8878 -10505 1787 -2652 2982 2731 8930 -12176 3005 -14289 -11491 -14629 -5318 3794 -21096 3505 -22656 14334 3348 8150 2844 5970 -6911 5506 -9548 6342 -13533 -13988 -3990 -5936 -20213 12507 -13366 752 12919 -9746 3024 35045 951 19660 11814 20680 -2400 12420 2035 -2 30 29 -4 -30 11 14 -30 22503 3910 -7842 -7682 -20654 -165 5728 24794 -5466 -2830 -3630 -2734 -20764 -14768 4810 842 4142 -29373 4249 2992 2677 4678 -9950 10467 -2676 9480 -9420 2219 -27575 6345 11082 -5336 10747 -5489 7440 -10250 13312 -30313 -19406 -2969 26891 -8083 2465 7809 -49826 -13558 -1656 -34045 3612 13976 -10851 -26250 -12742 -6994 2262 -12745 10999 -12743 -1704 1599 -49516 3319 -4056 23338 10020 -45649 5439 -7745 10462 -9676 -6388 7772 6590 4426 -20544 -9765 -11263 -19564 3081 2297 -9236 -16202 -2565 -5034 -4526 2965 -10853 -7959 12171 -11953 2450 -3156 -6087 19934 -13442 5251 -3523 -1559 -12316 -2257 21495 -2537 -10029 -16009 10989 -12710 23055 4010 946 -718 7291 12117 -20256 -16363 23546 3637 16670 10696 6274 -21999 -12963 3069 4194 8509 -5240 4764 948 -1210 -7812 2231 1089 -8044 -14218 11403 -3639 -63 1288 -13097 -29885 -19002 -15104 -2543 -4423 -1222 -3456 -4621 -14711 -6073 -1979 -8627 -17118 1587 -33400 -9592 -51296 3865 -34113 5472 -162 5644 -5594 -5253 26233 -23375 -15376 -13214 15260 -28175 -17110 -12266 9111 -28022 32670 -4451 35017 -29835 -10666 13828 -30024 -4805 -973 -12245 7606 -23256 14990 41430 -70585 -4810 -5767 -17489 -30726 -32873 -8424 4914 9536 3504 -8063 -5014 8019 -913 -8834 -6649 3252 -385 7619 -4635 -667 11270 -15158 12244 -5657 -6343 -16550 -2393 -675 5191 13133 11414 -23597 8762 5650 36818 -11405 10852 8967 8992 5774 2712 -4195 -13842 -20106 -6686 410 16737 -27114 15080 2790 24576 -10342 -26422 13699 26515 -5785 31867 -71690 -25392 -9195 -1910 20061 3208 -19204 -29890 -46909 -60119 -12456 26977 -50354 8851 -1455 3170 2937 4780 7659 -22479 -24543 -44257 7218 8752 -1442 7989 -2289 -3619 -4236 17568 -12475 -1738 5522 2955 1184 -42075 24984 9838 -30562 6678 -12290 -3541 -10227 -31432 -32171 -8436 -3433 13103 13004 5606 27319 711 -16677 20279 27953 -1452 -20225 -789 20130 15897 4312 -5371 1773 -3974 10412 -8137 -110 7523 -1301 -8 -988 6 -65 9 -28 1058
1 19 -13 -12 34 34 -7 8 9399 2434 7604 -16208 -40410 -1530 -3414 -18612 5729 -8262 -1662 3893 9742 -834 -5687 -12394 1052 3746 6645 -4625 -9924 -5103 -12044 2724 3622 -9316 1140 -10821 -13952 -8592 -5663 5554 -5565 -5321 5226 -1380 4514 1386 -11898 -15633 -8895 -1073 9387 198 -8440 2310 -8712 731 -4 16 -29 -20 5 -33 -24 -27 -3544 -6565 4466 5043 -46652 -13657 -9257 -1276 8050 13291 882 8639 7100 -17863 6005 -3465 -21032 -20557 -1429 11359 148 8415 -8377 -168 23049 13574 7093 -25055 -1442 -3229 -65 -12425 -17695 19315 2449 -11356 -1323 -11182 10252 -9709 -5822 337 -217 -14742 -11109 -6050 -12498 -3157 10035 6194 14448 -9668 -9010 -1214 759 17447 9588 -6439 -23058 1239 11785 -6359 -9817 8130 -31005 5359 -9294 3363 -16994 -428 -7938 -9716 14315 -11861 -8437 18995 5995 5300 -13038 4998 14255 7715 12583 -19447 5537 20202 -14864 7945 12589 14036 108 17673 26 5241 15166 11498 -19813 14494 -8753 11857 -6450 -6256 -32243 -6533 6733 -8136 -11639 6401 -10329 -8769 3956 3411 -9769 3797 18033 2646 11493 24245 3711 -44739 8526 -38966 -7906 -7085 -18346 -8806 -5824 -2468 7967 -8608 14025 -36080 -4523 -596 6899 1742 7070 5448 18953 -5105 33995 -3056 -14269 9304 27092 19637 -45024 15298 -15324 8900 -13847 -8985 8636 18832 9302 7483 -6422 -14243 -4169 -27691 -8484 3108 28685 -2800 -6267 -14109 -20557 11196 5482 -6633 11385 1105 6684 6471 -21856 877 -6872 -14166 5280 -1868 -3102 2820 -2352 -22425 -2357 -13353 -8904 -15581 -10964 -2949 -9965 -6540 22602 -42927 23894 3290 -27696 -22950 28353 5172 -9471 -6245 -7011 24239 5359 -20963 6322 -15147 10197 11112 11215 31347 34725 11941 36553 8783 -48328 14890 19734 30217 10114 -5226 16236 -43242 4707 21599 6205 20550 886 -6751 -31924 5214 -1300 -12961 -3142 -19906 -3753 25313 -29447 16805 -21995 -6126 -21180 -28092 -9131 -5851 6418 -45660 2210 -16480 3601 -16996 -29719 -1142 5940 16151 3664 22 316 -641 13 -184 -44 -33 2448 -3658 283 -11099 -290 -9282 -6471 -1942 -18029 -1916 -14057 2852 13093 23572 127 -4467 -21935 14879 -42825 -15537 9573 -10412 6860 15216 20152 -2459 11386 -4422 2373 -44712 4589 3472 16618 -3795 10925 -8749 11798 3387 2998 -26106 21191 -13670 6770 -861 940 -3874 -6784 26164 13590 4792 2854 -13778 331 -5536 21204 -6183 22 -25 0 -18 -10 -32 3 0 -851 -7999 -5216 -159 -1741 -6773 -462 4570 8958 -1719 -3746 -2080 -3055 -21418 -15524 -5867 5021 6105 4214 -865 -6433 -1060 -6146 -2590 -5664 11422 2577 -3322 8443 -3745 -610 2144 4138 -392 3829 13405 5955 -15556 -1810 3221 -27322 -19530 -5573 20788 9283 -2975 5396 30519 -33 -27 29 -15 36 24 16 -28 11966 9614 1870 4763 -2662 -30406 -2150 -1715 -41454 -5235 -13458 7629 8616 -10940 -13955 9177 9960 -2293 -3325 -9435 2250 1798 -7481 4921 15383 -19647 -15431 3351 506 9129 -26852 11954 1823 1305 -2396 16003 -4419 -5096 -7101 -11464 18862 -12685 19759 -5458 -20769 -5797 1139 -20332 17331 1069 15860 24114 -3568 15817 -9165 16425 -24656 -1630 22344 -2666 13249 -23445 -10918 -6969 -1811 23361 -6090 -28561 -11942 -8744 -10799 -518 -7446 -3380 -7992 2649 9205 2719 1614 11594 -18249 6247 5416 3140 -7019 -5280 -7996 5945 8335 -13310 20641 -19095 -10264 2318 -22745 -11692 -24106 7604 -722 -12872 -31 14975 -32680 -16341 4319 -1546 6945 19247 -29085 -16657 3697 765 -7527 25406 2041 -3933 -9094 -23302 2611 10659 10799 -32423 9319 11157 13673 12242 9264 -16724 -2667 5346 -3410 -7160 -168 800 -1261 -4130 3614 -23261 10163 -3639 -24036 6864 6914 7583 7464 3541 -10343 2762 20088 509 11630 1965 9057 -9426 3549 9359 -7912 6161 -2519 -5310 16148 -19047 26858 1468 18552 22436 6315 -6597 30394 16386 -48673 3960 -5782 -11440 18262 20561 -29642 -2495 18056 1954 11013 -11920 19394 -9514 -10532 4511 -6210 -36103 7218 6119 -9342 -6736 5001 -18070 -27845 -2410 6717 8078 13929 -1673 -9021 -12807 -2234 -2790 -19930 -8079 -1232 4784 -13428 -6124 -3030 12027 37085 4944 -10440 -10919 -7618 3201 -13780 -829 23406 36449 122 -35891 -21093 -591 26356 -391 8032 7368 -33147 20639 23141 30177 3713 -2823 -14552 11482 -23283 14180 497 -21556 -2493 37449 58527 -16061 39718 17204 16782 13858 -5662 3378 7258 5580 24185 20288 -51292 1445 11688 4837 -3591 -7204 4207 -13181 -31638 -6349 12506 1492 6725 2835 -10929 -97 -1431 15741 -2938 8866 -848 10868 -6933 -179 26871 -13385 5300 -1651 3290 14282 -20201 17160 -3981 26012 25881 -1497 17396 -2480 -3680 15830 -2158 -9741 -3788 17655 23859 -7513 28892 25603 -4994 -4788 -525 6198 -11757 -266 11740 6503 5473 -27 600 27 93 29 -308 -7
-19 -3 -26 0 -11 -31 -26 -13 -36877 -2314 -8444 -14999 -5193 11910 2679 -32735 -30743 -8370 3061 -11780 8247 -5159 2623 -9319 -17994 5226 -4984 1139 -10028 -2078 -3029 4851 -7202 -5233 -639 -3418 1078 -1169 941 -4706 -8993 -9530 4683 -2237 -2491 4002 3523 -7319 -7 873 3824 -10652 -2909 1758 -7021 -5070 6 20 -8 -19 -25 4 36 7 -9814 27952 12517 -19861 -36 5082 -7986 -12174 1968 -2935 -17407 -2875 14141 -2467 -16747 11908 15427 -11082 -1254 4766 13947 163 1110 25812 11108 8443 -6097 -2549 2304 -1923 -4132 -10920 -7826 -21400 -11001 -45186 -4395 7781 17997 21737 -6644 -12008 1127 980 -11493 6047 10859 3396 10456 -19332 -17376 -14966 -3553 -2153 -18985 6956 1009 1656 11816 934 5055 -23950 -2407 -13286 -1937 -23015 8968 -3833 -4732 15702 14007 5806 -4801 -39179 10421 9204 -2884 -6589 -22284 550 -43685 -10064 -22526 -2604 -3134 -7596 -14359 -11419 -32227 6561 -22223 -1694 -714 1982 7926 -37995 -27181 -20252 -20356 -9059 -11960 5982 -15662 -4169 -23777 -1925 -1688 150 -1099 2389 1507 -5831 -602 -1539 -21816 7483 -9925 23210 3084 -16309 4004 -31678 -2182 -5336 7686 -14046 -20982 -4749 -19441 -19616 -2999 -2958 -2008 -4235 -21048 -20256 -1430 -21073 -16113 1539 113 -11557 -24652 -16436 -29978 15451 15424 17037 8360 -23318 -3215 -2757 2280 19815 -1910 -7276 -31087 4159 -1748 -11618 -3465 -22574 5760 20838 -35547 -10005 8182 7634 -11541 -61051 -22886 11004 -9107 -7030 594 912 -3921 -5392 -15248 1037 -3868 -8752 -19400 793 -8117 -8247 -10410 -10136 -14262 -6172 -8100 -10929 12447 -17314 30505 -18934 11170 28295 -17643 26798 -4779 13425 29157 -26096 14093 8886 15894 -3251 713 -4884 11448 8595 26958 32449 -15564 4505 9415 20663 11555 -1994 18602 20466 -3043 -9475 -31631 15228 23608 3164 -4458 -24276 -12227 4506 2091 1880 -3142 -6403 6371 -3138 14679 11158 -15424 -31261 7864 231 -1021 3686 20488 16011 3831 -32894 3327 2068 -19666 3661 -16615 -17589 158 -2 925 687 34 -876 227 -592 598 3751 -464 -1479 533 1280 -1581 -547 -609 -6624 2810 13262 2690 7663 -590 -8670 -3101 17045 11012 -13199 12859 20560 31200 20580 7673 226 10759 -2168 -25245 -23194 -569 -22721 -738 -7462 4090 -12970 -32650 17571 -17530 19216 -40319 8192 -2702 -5380 -6100 -10456 -18151 3226 -25827 1389 8749 320 -9658 920 -12114 861 24 32 8 -30 -27 12 6 -7 2225 1404 -9268 -6473 -6416 622 -5521 -3337 159 -15100 8295 -5018 -3554 -1752 3253 -6622 -1662 -567 2087 1543 -7426 -5546 -982 -3442 -9675 -16580 10951 -3199 4703 -1562 2878 -16592 3801 12152 -4652 5536 -193 4177 -19490 -14600 5703 25523 7280 9510 -1212 -19509 1025 -17231 -28 17 34 3 -24 -31 31 -16 14347 7423 14293 16588 24005 -15320 -5970 -2548 20074 -8656 7131 12019 -3729 -14720 -9940 -10937 12793 -12071 1902 -10146 9535 7395 -16363 55 -6923 -2139 -23251 10612 -6051 8382 2312 -35234 -18857 -14975 5693 245 17178 1739 3363 16118 -2364 10221 9798 6875 4653 4770 -22327 -8589 -14627 4870 7260 8099 -22629 11768 13807 -2523 -7293 -2388 12076 27458 8116 -17862 -2964 9174 15307 -2699 7045 -17654 -5139 -5386 6531 -18439 -16741 9915 12265 35 -13780 -5934 -17219 -23060 -3570 10126 5533 102 -10047 8009 -13744 -1564 7466 1703 14503 6943 14377 -13619 6079 -8463 -26251 19901 -15164 1519 10506 -7802 -6866 -4979 5550 13521 2845 2399 -26298 -25510 -31418 -9124 -32526 13589 -5561 22780 -7941 -33550 4718 2830 -1417 -24234 4208 -19403 -20143 -4350 15115 -8084 2460 -10221 -2655 -4576 -2743 1228 -4609 -7271 -6609 -20766 -9593 -8615 -24618 2263 -985 15589 6184 -8601 -2052 -1949 -2887 12915 8387 -5968 1682 32871 -4630 17726 19692 661 1185 -1026 9097 11036 -8770 10779 16334 -10389 -27789 1555 -3132 -4944 30586 11512 15778 4087 -14748 8411 8236 20115 9038 15746 -6291 5102 -11152 -6424 5815 9861 24801 -5046 -31169 13784 -28438 -3026 16834 5326 8718 5984 19033 7731 13616 -20703 -14077 3398 15448 11008 -31145 2962 5903 -10108 6899 20887 12643 14399 14842 12296 15751 -1110 6630 -25310 3804 -1358 36763 1991 23541 613 6467 9589 7825 -2662 6769 24331 16867 8234 8978 17317 22364 29178 -12149 25488 25855 12715 -7341 35158 -16511 17170 -11709 -18566 26185 33654 33339 22979 -4267 679 -2071 2305 13277 21120 -1623 -16996 -10558 -4835 -3963 -16168 -1777 4582 1937 1356 199 -5911 -10483 5357 1308 17907 -35157 5830 -5668 -9517 -9193 -10796 -13780 13535 5879 -16789 -4564 -12394 -9455 424 -15344 26997 -2484 -10127 -7021 -18369 18829 19543 -7779 -1373 -2803 -2127 -6855 -5444 -10565 -5819 -1744 -6676 -680 -540 24 933 886 1057 160 -165 -489 -1657 -2550 14 1322 -809 -18 89
-25 16 -34 25 29 -11 36 -19 7892 5353 -17094 5679 -5111 -33259 15988 -4755 -19367 31361 4486 7205 -20537 9157 1517 -8884 -3460 1483 -6604 -6469 -10681 -15135 -4040 -364 5166 3786 -1378 3937 -2927 7874 -11048 1028 51 -8685 -1441 6786 -6677 10072 -7157 11015 2997 -5378 -3637 10308 734 815 -5095 775 -16 -20 -23 13 0 28 35 -12 2147 10672 -10164 7752 26204 -22399 -796 10693 -24827 -4765 -4403 -19905 -5317 -7776 -16082 -25785 -6970 -11464 -8339 -4020 -19766 8410 19694 1291 -10377 -15868 -7197 20135 -9931 19470 -11033 -6453 -12947 -2818 310 -3504 -9580 8072 -28303 9107 -10315 -5441 -1693 1122 -16753 -6128 -9467 -3020 10147 -24956 -1564 -12618 8261 -12388 12812 -2849 6312 582 -13837 -17660 -23439 -24009 -10248 -4760 15545 -2856 -14367 -9382 -2526 -107 -19352 -12245 11919 -4388 17292 -8634 -8862 21743 -3718 613 -11268 -3039 -18755 6743 -9844 8850 -14043 -2545 22314 -1656 -28291 21678 -3207 22324 -14135 7836 -571 28314 -9579 -13180 -481 2086 -27478 24210 -10449 -4043 -17909 15895 -9373 11006 -38236 2474 -5107 -10756 1181 2283 481 -10836 683 7406 -8984 32080 -9308 8447 -10912 744 -40155 3697 5460 -18376 3320 10162 -8389 -9219 -29402 21802 -555 -9571 -25598 -22515 17268 -19133 -28033 8549 -9226 18050 -15762 -32944 12435 15838 -10770 -19394 29838 -28353 -16762 -19477 21196 -16631 -2190 7690 7771 743 773 29044 -18292 -19669 -6351 771 -2355 17771 -30333 15694 -451 21562 -25438 -18404 6520 -21140 6696 -19733 -12022 -2144 2961 5479 -3634 310 -10402 11177 -5017 -11994 -64 -376 -44902 -999 -19649 17055 -6846 -8672 -27856 -29300 6724 -14361 -31877 21147 -6649 1969 -3278 10672 -14036 12273 -37623 -6352 32586 -10588 1953 -21526 16817 -27370 -50306 4710 17326 -8175 -8272 -20591 -4990 11957 -14784 -4983 -11230 -17081 -3524 18883 10424 -11712 -11793 13000 19597 -11423 -24455 -15573 2875 -1459 16067 -10692 -13758 -8098 -8019 7685 -30983 -2393 -7280 -7400 -16655 -23234 -10016 -577 7942 12 2718 647 -31 -901 25015 -941 2020 7927 -8244 -6890 -11914 8916 -1421 3173 7784 -2346 -18919 24487 13127 -606 -1567 8566 31338 21083 6717 7260 2164 -22323 -28245 20263 39843 22818 -24992 7883 7339 20465 11679 3675 -11609 2843 -708 3989 -8144 -3166 13749 -23404 12607 -13510 4172 -964 -6596 -906 13253 -8184 -30447 10000 1095 -1317 -7225 -2239 -11735 2353 -24 10 -5 -25 -5 31 -13 -21 3102 -3469 4676 -4161 1487 8993 -6495 1271 -4045 6516 5183 -8959 8718 -2646 -2789 -43 3618 -7082 1775 1262 -6794 5639 3141 -2574 -2267 -4125 5085 -4228 8095 2575 7659 -19378 -20508 26900 1116 10753 -16781 30655 3484 16802 26841 -9438 11770 -21509 27605 -25505 24143 -37810 -6 -36 21 -32 -17 -13 -18 -32 9636 4051 4941 15210 17256 -19425 4497 -8645 -10322 -3044 6086 1886 4309 2382 5232 2770 490 -2501 14551 10257 -13878 2868 19975 -253 1037 8529 10537 11335 8485 299 898 3324 6560 13957 5974 7940 -4757 1159 1207 26301 -24569 2238 -12618 13020 13066 15928 3148 7548 -11784 16203 1005 18489 25624 22755 16176 5862 -298 -16245 -4757 5858 -1236 -632 -41322 3659 24461 4243 116 4082 4114 4622 -7713 -1702 -4797 -325 15667 8927 -832 -1507 14480 -2624 -18017 27128 15581 17793 16584 6854 -19427 13011 2737 -590 27079 7291 3939 815 8037 1209 -754 -10279 -7169 12449 -8113 17770 -21711 -8071 -11 -4612 -46228 -12450 13358 -19313 12313 -28976 4264 8289 5460 -33946 1970 22803 12769 6478 -2784 11887 1316 -37626 12633 -6645 8449 -5036 786 8414 1101 373 3425 1150 6701 5244 -5341 -5925 -14976 15138 499 2113 -352 2195 2330 3410 -29103 8813 4857 -12073 4077 8398 4277 5178 -1121 5080 11714 23063 -20856 11811 20052 -23487 -2651 -202 62 -31521 -6418 9913 12866 15173 -12646 22003 -48110 -2426 -15804 -2129 -3245 18853 13414 -4354 9725 17775 33392 28381 -18808 14947 -14968 -8873 -50294 -14149 -6471 -20766 16350 -666 13182 12788 15988 7332 15466 13812 -11279 -10365 -17602 19837 -6466 25484 -10933 13682 -5129 22039 8854 15866 21852 20454 561 8579 -53993 9352 -10654 18798 4848 10464 -11950 16404 21475 -16045 29151 19514 32418 17094 6714 5856 -3454 -14654 -19284 21527 4740 16183 -6148 31402 13988 -10915 15287 2438 21958 30867 23164 -24855 15386 8360 -35814 19132 20029 25630 33171 -6838 -25672 -12779 -9135 6161 1489 -15811 -7665 1086 -29706 16787 -12638 8579 4034 207 9803 6443 -6538 5214 -40497 -3984 -14223 14509 14811 10506 -8545 -55781 -31815 -25807 11969 -3760 -11911 -27478 -35838 7671 -29508 -5221 1352 -42536 -9367 16836 -4992 -961 15812 -15910 -25013 -3029 -28686 -7795 -1295 -7615 310 2076 -6560 13406 -787 -19797 -8869 -2466 -8961 -21 1803 -3073 -359 -1279
-28 3 10 -30 14 4 2 -1 4 35 -18 -19 -25 -4 -26 10 14 24 -32 24 -64 -287 -16 2 -110 -30 -342 31 -320 -57 6 -295 -74 -84 -136 -32 -99 -44 -7 -1 -14 -112 -5 -95 -325 -1 -73 -32 -88 -70 -32 -123 -91 -71 -235 -25 34 14 -20 -11 -13 35 7 -28 -19 31 -19 -23 -23 -21 21 -4 -34 19 -32 -2 -24 35 13 36 14 25 -5 -15 23 -14 -2 28 15 -14 -19 -18 19 -5 -99 30 26 -25 20 -344 12 28 -28 5 25 27 -27 36 7 -64 20 -85 -8 34 -74 -24 -85 -32 -17 33 67 -68 -30 -12 11 -28 -261 25 36 -14 -32 -17 -11 10 -33 3 -3 -3 -31 34 -17 0 -2 3 22 -13 -35 -10 -36 -41 30 -22 -29 3 23 -13 -24 0 -48 12 -29 -36 -5 -118 6 -9 -309 12 -85 20 14 -102 -35 -66 22 -1 -12 27 0 12 -1 -3 -2 35 -25 -3 -17 -34 -9 -81 -35 31 6 -29 26 22 -13 14 21 -6 13 16 34 13 -9 31 27 -22 23 -6 -4 12 21 -30 20 -20 -30 -19 22 2 -8 22 11 25 -85 -4 -27 -14 -35 5 -7 -311 -7 -37 -17 -30 11 -10 34 -20 8 -7 -14 -11 -12 -71 -21 -274 -82 -88 28 22 -4 -3 -86 -83 -36 -1 2 -24 -5 25 -2 6 -304 -11 -16 24 -29 4 -2 -26 -21 12 -20 -29 -25 24 -9 -14 -26 -16 28 33 -9 -26 -28 -12 27 -30 1 23 -10 -27 25 -18 -15 13 -23 -28 -25 -246 -29 33 31 4 -20 -26 -9 33 31 14 -48 -21 -5 -34 -20 -4 8 -29 9 17 17 8 -34 4 8 0 35 -15 25 21 -9 19 8 -36 24 -36 35 -11 -19 9 -9 22 27 -22 17 24 29 26 2 -36 26 23 9 -14 -14 5 -3 -12 32 21 10 -14 -31 26 30 -36 -20 -78 32 -32 -350 -265 20 -4 30 28 -32 40 -51 36 28 34 17 -5 35 25 11 -17 -3 17 -70 -14 -75 -58 -13 17 -73 -64 -11 -53 -66 -228 -5 -13 -84 39 -54 -20 -127 -259 -41 -230 -44 -33 -98 -117 -31 34 -74 -67 -232 -12 -275 -35 -24 12 -70 10 -132 54 -3 6 -3 -36 20 15 7 -2 -1 -5 21 -36 33 15 30 13 4 -92 27 -4 28 4 -71 33 23 29 -28 -263 -82 30 -10 -19 -103 22 -33 20 -103 -35 -31 -30 3 -21 -5 -22 22 28 21 8 -34 25 25 -8 -36 -15 -29 20 -1 -8 -36 22 -5 30 -26 -17 -43 -1 -14 -21 20 16 20 -25 0 35 21 10 35 -64 -35 -11 -9 -35 -38 13 3 -71 -303 -36 32 -7 28 34 -285 -7 -9 29 -36 31 7 23 26 35 -25 -19 33 -79 -72 -25 -8 0 3 -28 5 -19 -3 -3 32 29 -20 11 -32 -21 -23 -31 13 19 27 4 -27 -239 25 16 4 -4 26 -28 19 9 -25 15 16 36 20 -21 -85 -19 -22 -65 -28 -9 -28 -50 -21 -36 -14 -31 -250 1 35 17 -42 2 -287 -36 -33 -4 -300 -30 23 98 -4 -23 12 -9 29 -303 2 -16 2 -8 -16 -10 -29 -21 -12 -26 1 -5 -32 -31 -18 -4 -20 13 4 6 25 10 35 -8 19 -33 -31 -31 26 -24 32 -18 15 -18 -44 -194 -13 34 32 -17 -12 -28 25 31 83 -11 7 -5 -13 -1 25 -34 35 -25 -5 22 -36 -27 -1 -36 29 14 -16 16 -9 30 6 -1 -7 -20 -11 12 35 27 27 30 25 -14 -25 3 0 -12 -3 18 9 -3 -19 30 20 0 2 -36 29 -15 -13 18 -24 -259 29 -1 -127 3 0 -11 -9 -24 -32 32 -91 -22 17 35 1 -30 -21 -23 -25 33 18 5 26 0 22 -16 17 17 3 -24 -12 15 -5 -20 18 1 25 22 -12 5 -31 -31 34 10 2 11 17 -17 -26 -30 7 15 -32 -5 4 34 21 32 -10 -8 -20 16
