-1626 4450 1896 1719 12988 -10024 -9253 -4530 295 1679 -1689 -9962 -64 -1660 1675 1509 6222 2132 1836 -4804 10065 -1467 162 -10177 3731 -11451 8470 -1548 -1698 1625 -5485 -2340 -8867 2252 -1699 -5036 4212 -1660 4350 7748 1732 8287 1679 -1621 -6945 -4602 1628 -6272 -2094 -16617 262 -2143 1508 -11228 -1619 1522 -1768 13 -1497 1635 -1789 1663 1543 3539 -8086 -1619 -4458 1625 1846 12341 -1704 -2898 -6233 -1723 -1534 12532 -10 11047 -1966 6480 -5092 308 1726 1857 -168 -5074 -1645 3977 -1742 10625 6819 -1956 286 -1691 1412 -1593 5552 -9381 1813 -106 1525 -1601 1560 -2029 1620 1586 -180 -1625 1864 5763 -1528 -1836 1870 1635 9934 5229 194 15430 -8533 -1687 -1966 -37 1656 -1761 -1990 -1977 15333 2754 -3350 49 11770 300 -1700 -1586 -4248 -1459 36 285 -6604 4824 7850 1452 1596 -1591 -6168 -1732 -1681 6928 1657 -6277 1818 292 -17 18366 2347 1615 8233 2318 -1907 -8131 -1587 1879 -1755 -2136 -8002 -127 1489 -210 -8485 1700 1658 -3493 -1442 -5660 -1615 -1622 -1610 2004 4889 -42 -4890 172 1726 -6559 4895 9278 101 -1600 -212 -2333 -1571 7938 1610 1990 -1662 1505 -1937 -7583 -1641 1755 -4148 1572 19309 -1733 6006 -6026 -2253 -1663 -9028 1643 18241 13189 5698 -1797 1548 -11215 -24407 -2017 1549 2964 1816 12054 -173 -1585 1763 -1680 1716 -3048 1661 -1471 -203 -4629 6386 -1376 8371 1804 -1575 -58 -1528 -1589 -1726 -10360 1702 -2446 1918 -1573 144 -1710 -5855 291 -39 2389 1462 11767 1726 -4138
