-1.588159799575805664e+00 4.346275329589843750e+00 1.852081418037414551e+00 1.678716659545898438e+00 1.268400382995605469e+01 -9.789132118225097656e+00 -9.036851882934570312e+00 -4.423965930938720703e+00 2.885713577270507812e-01 1.639720797538757324e+00 -1.649956464767456055e+00 -9.728720664978027344e+00 -6.341328471899032593e-02 -1.621104359626770020e+00 1.636172533035278320e+00 1.473827362060546875e+00 6.076381683349609375e+00 2.082816362380981445e+00 1.793837428092956543e+00 -4.691970825195312500e+00 9.829833030700683594e+00 -1.432855010032653809e+00 1.585125923156738281e-01 -9.939015388488769531e+00 3.643984556198120117e+00 -1.118308448791503906e+01 8.272335052490234375e+00 -1.512550592422485352e+00 -1.658315420150756836e+00 1.587421059608459473e+00 -5.357104301452636719e+00 -2.285731792449951172e+00 -8.659501075744628906e+00 2.199995279312133789e+00 -1.659814715385437012e+00 -4.918348789215087891e+00 4.114253520965576172e+00 -1.621615171432495117e+00 4.248442649841308594e+00 7.566656589508056641e+00 1.692261457443237305e+00 8.092962265014648438e+00 1.640292525291442871e+00 -1.583761811256408691e+00 -6.782390594482421875e+00 -4.494738578796386719e+00 1.590254783630371094e+00 -6.125592708587646484e+00 -2.045580387115478516e+00 -1.622767257690429688e+01 2.563634216785430908e-01 -2.093321800231933594e+00 1.473427772521972656e+00 -1.096551704406738281e+01 -1.581351876258850098e+00 1.486469268798828125e+00 -1.727366566658020020e+00 1.281124819070100784e-02 -1.462597846984863281e+00 1.597358942031860352e+00 -1.747145056724548340e+00 1.624474525451660156e+00 1.506939768791198730e+00 3.456104040145874023e+00 -7.897344589233398438e+00 -1.581632971763610840e+00 -4.353891849517822266e+00 1.587858319282531738e+00 1.803302764892578125e+00 1.205217361450195312e+01 -1.664319157600402832e+00 -2.830249309539794922e+00 -6.087064266204833984e+00 -1.683121323585510254e+00 -1.498053431510925293e+00 1.223853492736816406e+01 -9.780095890164375305e-03 1.078857994079589844e+01 -1.920473337173461914e+00 6.328944206237792969e+00 -4.972700595855712891e+00 3.013105094432830811e-01 1.685581326484680176e+00 1.813820719718933105e+00 -1.648552715778350830e-01 -4.955502986907958984e+00 -1.607409000396728516e+00 3.884530782699584961e+00 -1.701242089271545410e+00 1.037670421600341797e+01 6.660094261169433594e+00 -1.910890579223632812e+00 2.795487642288208008e-01 -1.652275323867797852e+00 1.379568576812744141e+00 -1.556407332420349121e+00 5.422806262969970703e+00 -9.162000656127929688e+00 1.770538568496704102e+00 -1.037686243653297424e-01 1.489783287048339844e+00 -1.564115285873413086e+00 1.524362564086914062e+00 -1.982124328613281250e+00 1.582614302635192871e+00 1.549784541130065918e+00 -1.761976480484008789e-01 -1.587429761886596680e+00 1.820918083190917969e+00 5.628091812133789062e+00 -1.492915034294128418e+00 -1.793637156486511230e+00 1.826319217681884766e+00 1.596698641777038574e+00 9.702074050903320312e+00 5.107380390167236328e+00 1.897809803485870361e-01 1.506930160522460938e+01 -8.333404541015625000e+00 -1.647694945335388184e+00 -1.920417904853820801e+00 -3.665628284215927124e-02 1.617230176925659180e+00 -1.720363140106201172e+00 -1.943850398063659668e+00 -1.931498885154724121e+00 1.497370624542236328e+01 2.690082073211669922e+00 -3.272191524505615234e+00 4.794630035758018494e-02 1.149468231201171875e+01 2.934989929199218750e-01 -1.660378575325012207e+00 -1.549084424972534180e+00 -4.149096488952636719e+00 -1.425207138061523438e+00 3.534500300884246826e-02 2.787204384803771973e-01 -6.449340820312500000e+00 4.710991859436035156e+00 7.666595458984375000e+00 1.418924808502197266e+00 1.559568643569946289e+00 -1.554676055908203125e+00 -6.023653984069824219e+00 -1.691449165344238281e+00 -1.642227292060852051e+00 6.765970706939697266e+00 1.619077205657958984e+00 -6.130626201629638672e+00 1.775445580482482910e+00 2.853315174579620361e-01 -1.733186654746532440e-02 1.793567848205566406e+01 2.292078495025634766e+00 1.577870488166809082e+00 8.040749549865722656e+00 2.263710021972656250e+00 -1.863211989402770996e+00 -7.940529823303222656e+00 -1.550373435020446777e+00 1.835367798805236816e+00 -1.714326262474060059e+00 -2.086464405059814453e+00 -7.814907073974609375e+00 -1.240366324782371521e-01 1.454680800437927246e+00 -2.052004486322402954e-01 -8.286633491516113281e+00 1.660412788391113281e+00 1.619792580604553223e+00 -3.411544561386108398e+00 -1.408490061759948730e+00 -5.527422904968261719e+00 -1.577278494834899902e+00 -1.584108710289001465e+00 -1.572671413421630859e+00 1.957641124725341797e+00 4.774818897247314453e+00 -4.117886722087860107e-02 -4.775442600250244141e+00 1.683855950832366943e-01 1.686382889747619629e+00 -6.406171321868896484e+00 4.780909538269042969e+00 9.060862541198730469e+00 9.902071952819824219e-02 -1.562596678733825684e+00 -2.079535126686096191e-01 -2.278967618942260742e+00 -1.534347057342529297e+00 7.752233505249023438e+00 1.572737097740173340e+00 1.943613409996032715e+00 -1.623060226440429688e+00 1.469881415367126465e+00 -1.892473816871643066e+00 -7.405290126800537109e+00 -1.602971196174621582e+00 1.714194416999816895e+00 -4.051650524139404297e+00 1.535624384880065918e+00 1.885733795166015625e+01 -1.692607641220092773e+00 5.866089344024658203e+00 -5.885532379150390625e+00 -2.200811624526977539e+00 -1.624861240386962891e+00 -8.816590309143066406e+00 1.605416059494018555e+00 1.781398391723632812e+01 1.288054370880126953e+01 5.564712047576904297e+00 -1.755046129226684570e+00 1.511858105659484863e+00 -1.095226478576660156e+01 -2.383580970764160156e+01 -1.969737529754638672e+00 1.512765049934387207e+00 2.895138978958129883e+00 1.773698449134826660e+00 1.177185630798339844e+01 -1.696947962045669556e-01 -1.548104405403137207e+00 1.721993923187255859e+00 -1.640825033187866211e+00 1.676410436630249023e+00 -2.976978540420532227e+00 1.622378945350646973e+00 -1.436953783035278320e+00 -1.988595426082611084e-01 -4.521252632141113281e+00 6.236533164978027344e+00 -1.344538688659667969e+00 8.175102233886718750e+00 1.762010693550109863e+00 -1.538984179496765137e+00 -5.679584294557571411e-02 -1.492377996444702148e+00 -1.552007794380187988e+00 -1.686423182487487793e+00 -1.011748600006103516e+01 1.662193179130554199e+00 -2.388967514038085938e+00 1.873152852058410645e+00 -1.536280393600463867e+00 1.413848400115966797e-01 -1.670011997222900391e+00 -5.718146800994873047e+00 2.842641174793243408e-01 -3.858903050422668457e-02 2.333981037139892578e+00 1.428016901016235352e+00 1.149205970764160156e+01 1.685999870300292969e+00 -4.041928768157958984e+00
